digraph Tree {
node [shape=box, style="filled", color="black", fontname="helvetica"] ;
edge [fontname="helvetica"] ;
0 [label="Bilirubin <= 0.854\ngini = 0.464\nsamples = 4753\nvalue = [3184, 180, 1389]\nclass = 2", fillcolor="#f1bc95"] ;
1 [label="N_Days <= 917.0\ngini = 0.278\nsamples = 3116\nvalue = [2609, 59, 448]\nclass = 2", fillcolor="#ea995f"] ;
0 -> 1 [labeldistance=2.5, labelangle=45, headlabel="True"] ;
2 [label="Prothrombin <= 10.85\ngini = 0.531\nsamples = 173\nvalue = [69, 8, 96]\nclass = 1", fillcolor="#deccf8"] ;
1 -> 2 ;
3 [label="Stage <= 3.5\ngini = 0.53\nsamples = 90\nvalue = [53, 6, 31]\nclass = 2", fillcolor="#f5d0b5"] ;
2 -> 3 ;
4 [label="Albumin <= 3.915\ngini = 0.403\nsamples = 51\nvalue = [38, 3, 10]\nclass = 2", fillcolor="#eda978"] ;
3 -> 4 ;
5 [label="Platelets <= 224.5\ngini = 0.305\nsamples = 44\nvalue = [36, 1, 7]\nclass = 2", fillcolor="#eb9c64"] ;
4 -> 5 ;
6 [label="Prothrombin <= 10.4\ngini = 0.497\nsamples = 13\nvalue = [7, 0, 6]\nclass = 2", fillcolor="#fbede3"] ;
5 -> 6 ;
7 [label="Hepatomegaly <= 0.5\ngini = 0.42\nsamples = 10\nvalue = [7, 0, 3]\nclass = 2", fillcolor="#f0b78e"] ;
6 -> 7 ;
8 [label="gini = 0.0\nsamples = 6\nvalue = [6, 0, 0]\nclass = 2", fillcolor="#e58139"] ;
7 -> 8 ;
9 [label="Prothrombin <= 9.9\ngini = 0.375\nsamples = 4\nvalue = [1, 0, 3]\nclass = 1", fillcolor="#ab7bee"] ;
7 -> 9 ;
10 [label="gini = 0.0\nsamples = 1\nvalue = [1, 0, 0]\nclass = 2", fillcolor="#e58139"] ;
9 -> 10 ;
11 [label="gini = 0.0\nsamples = 3\nvalue = [0, 0, 3]\nclass = 1", fillcolor="#8139e5"] ;
9 -> 11 ;
12 [label="gini = 0.0\nsamples = 3\nvalue = [0, 0, 3]\nclass = 1", fillcolor="#8139e5"] ;
6 -> 12 ;
13 [label="Age <= 12418.0\ngini = 0.123\nsamples = 31\nvalue = [29, 1, 1]\nclass = 2", fillcolor="#e78946"] ;
5 -> 13 ;
14 [label="Platelets <= 280.0\ngini = 0.5\nsamples = 2\nvalue = [1, 1, 0]\nclass = 2", fillcolor="#ffffff"] ;
13 -> 14 ;
15 [label="gini = 0.0\nsamples = 1\nvalue = [1, 0, 0]\nclass = 2", fillcolor="#e58139"] ;
14 -> 15 ;
16 [label="gini = 0.0\nsamples = 1\nvalue = [0, 1, 0]\nclass = 0", fillcolor="#39e581"] ;
14 -> 16 ;
17 [label="Sex <= 0.5\ngini = 0.067\nsamples = 29\nvalue = [28, 0, 1]\nclass = 2", fillcolor="#e68640"] ;
13 -> 17 ;
18 [label="gini = 0.0\nsamples = 25\nvalue = [25, 0, 0]\nclass = 2", fillcolor="#e58139"] ;
17 -> 18 ;
19 [label="Alk_Phos <= 7.136\ngini = 0.375\nsamples = 4\nvalue = [3, 0, 1]\nclass = 2", fillcolor="#eeab7b"] ;
17 -> 19 ;
20 [label="gini = 0.0\nsamples = 1\nvalue = [0, 0, 1]\nclass = 1", fillcolor="#8139e5"] ;
19 -> 20 ;
21 [label="gini = 0.0\nsamples = 3\nvalue = [3, 0, 0]\nclass = 2", fillcolor="#e58139"] ;
19 -> 21 ;
22 [label="Copper <= 53.5\ngini = 0.653\nsamples = 7\nvalue = [2, 2, 3]\nclass = 1", fillcolor="#e6d7fa"] ;
4 -> 22 ;
23 [label="gini = 0.0\nsamples = 3\nvalue = [0, 0, 3]\nclass = 1", fillcolor="#8139e5"] ;
22 -> 23 ;
24 [label="Alk_Phos <= 7.176\ngini = 0.5\nsamples = 4\nvalue = [2, 2, 0]\nclass = 2", fillcolor="#ffffff"] ;
22 -> 24 ;
25 [label="gini = 0.0\nsamples = 2\nvalue = [2, 0, 0]\nclass = 2", fillcolor="#e58139"] ;
24 -> 25 ;
26 [label="gini = 0.0\nsamples = 2\nvalue = [0, 2, 0]\nclass = 0", fillcolor="#39e581"] ;
24 -> 26 ;
27 [label="Copper <= 68.5\ngini = 0.556\nsamples = 39\nvalue = [15, 3, 21]\nclass = 1", fillcolor="#e0cef8"] ;
3 -> 27 ;
28 [label="Bilirubin <= 0.5\ngini = 0.497\nsamples = 24\nvalue = [15, 1, 8]\nclass = 2", fillcolor="#f4c8a8"] ;
27 -> 28 ;
29 [label="gini = 0.0\nsamples = 6\nvalue = [6, 0, 0]\nclass = 2", fillcolor="#e58139"] ;
28 -> 29 ;
30 [label="Albumin <= 3.555\ngini = 0.549\nsamples = 18\nvalue = [9, 1, 8]\nclass = 2", fillcolor="#fcf2eb"] ;
28 -> 30 ;
31 [label="Bilirubin <= 0.615\ngini = 0.375\nsamples = 8\nvalue = [2, 0, 6]\nclass = 1", fillcolor="#ab7bee"] ;
30 -> 31 ;
32 [label="Age <= 22577.5\ngini = 0.245\nsamples = 7\nvalue = [1, 0, 6]\nclass = 1", fillcolor="#965ae9"] ;
31 -> 32 ;
33 [label="gini = 0.0\nsamples = 6\nvalue = [0, 0, 6]\nclass = 1", fillcolor="#8139e5"] ;
32 -> 33 ;
34 [label="gini = 0.0\nsamples = 1\nvalue = [1, 0, 0]\nclass = 2", fillcolor="#e58139"] ;
32 -> 34 ;
35 [label="gini = 0.0\nsamples = 1\nvalue = [1, 0, 0]\nclass = 2", fillcolor="#e58139"] ;
31 -> 35 ;
36 [label="Platelets <= 316.5\ngini = 0.46\nsamples = 10\nvalue = [7, 1, 2]\nclass = 2", fillcolor="#efb083"] ;
30 -> 36 ;
37 [label="Hepatomegaly <= 0.5\ngini = 0.219\nsamples = 8\nvalue = [7, 0, 1]\nclass = 2", fillcolor="#e99355"] ;
36 -> 37 ;
38 [label="gini = 0.0\nsamples = 1\nvalue = [0, 0, 1]\nclass = 1", fillcolor="#8139e5"] ;
37 -> 38 ;
39 [label="gini = 0.0\nsamples = 7\nvalue = [7, 0, 0]\nclass = 2", fillcolor="#e58139"] ;
37 -> 39 ;
40 [label="Prothrombin <= 10.4\ngini = 0.5\nsamples = 2\nvalue = [0, 1, 1]\nclass = 0", fillcolor="#ffffff"] ;
36 -> 40 ;
41 [label="gini = 0.0\nsamples = 1\nvalue = [0, 1, 0]\nclass = 0", fillcolor="#39e581"] ;
40 -> 41 ;
42 [label="gini = 0.0\nsamples = 1\nvalue = [0, 0, 1]\nclass = 1", fillcolor="#8139e5"] ;
40 -> 42 ;
43 [label="N_Days <= 574.5\ngini = 0.231\nsamples = 15\nvalue = [0, 2, 13]\nclass = 1", fillcolor="#9457e9"] ;
27 -> 43 ;
44 [label="gini = 0.0\nsamples = 1\nvalue = [0, 1, 0]\nclass = 0", fillcolor="#39e581"] ;
43 -> 44 ;
45 [label="Bilirubin <= 0.529\ngini = 0.133\nsamples = 14\nvalue = [0, 1, 13]\nclass = 1", fillcolor="#8b48e7"] ;
43 -> 45 ;
46 [label="gini = 0.0\nsamples = 1\nvalue = [0, 1, 0]\nclass = 0", fillcolor="#39e581"] ;
45 -> 46 ;
47 [label="gini = 0.0\nsamples = 13\nvalue = [0, 0, 13]\nclass = 1", fillcolor="#8139e5"] ;
45 -> 47 ;
48 [label="Stage <= 2.5\ngini = 0.349\nsamples = 83\nvalue = [16, 2, 65]\nclass = 1", fillcolor="#a36eec"] ;
2 -> 48 ;
49 [label="Age <= 20751.5\ngini = 0.444\nsamples = 9\nvalue = [6, 0, 3]\nclass = 2", fillcolor="#f2c09c"] ;
48 -> 49 ;
50 [label="gini = 0.0\nsamples = 3\nvalue = [0, 0, 3]\nclass = 1", fillcolor="#8139e5"] ;
49 -> 50 ;
51 [label="gini = 0.0\nsamples = 6\nvalue = [6, 0, 0]\nclass = 2", fillcolor="#e58139"] ;
49 -> 51 ;
52 [label="Hepatomegaly <= 0.5\ngini = 0.279\nsamples = 74\nvalue = [10, 2, 62]\nclass = 1", fillcolor="#995eea"] ;
48 -> 52 ;
53 [label="Platelets <= 231.0\ngini = 0.628\nsamples = 11\nvalue = [4, 2, 5]\nclass = 1", fillcolor="#ede3fb"] ;
52 -> 53 ;
54 [label="gini = 0.0\nsamples = 5\nvalue = [0, 0, 5]\nclass = 1", fillcolor="#8139e5"] ;
53 -> 54 ;
55 [label="Bilirubin <= 0.688\ngini = 0.444\nsamples = 6\nvalue = [4, 2, 0]\nclass = 2", fillcolor="#f2c09c"] ;
53 -> 55 ;
56 [label="gini = 0.0\nsamples = 4\nvalue = [4, 0, 0]\nclass = 2", fillcolor="#e58139"] ;
55 -> 56 ;
57 [label="gini = 0.0\nsamples = 2\nvalue = [0, 2, 0]\nclass = 0", fillcolor="#39e581"] ;
55 -> 57 ;
58 [label="Platelets <= 158.0\ngini = 0.172\nsamples = 63\nvalue = [6, 0, 57]\nclass = 1", fillcolor="#8e4ee8"] ;
52 -> 58 ;
59 [label="Spiders <= 0.5\ngini = 0.459\nsamples = 14\nvalue = [5, 0, 9]\nclass = 1", fillcolor="#c7a7f3"] ;
58 -> 59 ;
60 [label="SGOT <= 121.08\ngini = 0.444\nsamples = 6\nvalue = [4, 0, 2]\nclass = 2", fillcolor="#f2c09c"] ;
59 -> 60 ;
61 [label="gini = 0.0\nsamples = 4\nvalue = [4, 0, 0]\nclass = 2", fillcolor="#e58139"] ;
60 -> 61 ;
62 [label="gini = 0.0\nsamples = 2\nvalue = [0, 0, 2]\nclass = 1", fillcolor="#8139e5"] ;
60 -> 62 ;
63 [label="Tryglicerides <= 145.0\ngini = 0.219\nsamples = 8\nvalue = [1, 0, 7]\nclass = 1", fillcolor="#9355e9"] ;
59 -> 63 ;
64 [label="gini = 0.0\nsamples = 7\nvalue = [0, 0, 7]\nclass = 1", fillcolor="#8139e5"] ;
63 -> 64 ;
65 [label="gini = 0.0\nsamples = 1\nvalue = [1, 0, 0]\nclass = 2", fillcolor="#e58139"] ;
63 -> 65 ;
66 [label="Tryglicerides <= 144.0\ngini = 0.04\nsamples = 49\nvalue = [1, 0, 48]\nclass = 1", fillcolor="#843de6"] ;
58 -> 66 ;
67 [label="gini = 0.0\nsamples = 46\nvalue = [0, 0, 46]\nclass = 1", fillcolor="#8139e5"] ;
66 -> 67 ;
68 [label="Spiders <= 0.5\ngini = 0.444\nsamples = 3\nvalue = [1, 0, 2]\nclass = 1", fillcolor="#c09cf2"] ;
66 -> 68 ;
69 [label="gini = 0.0\nsamples = 2\nvalue = [0, 0, 2]\nclass = 1", fillcolor="#8139e5"] ;
68 -> 69 ;
70 [label="gini = 0.0\nsamples = 1\nvalue = [1, 0, 0]\nclass = 2", fillcolor="#e58139"] ;
68 -> 70 ;
71 [label="Stage <= 3.5\ngini = 0.241\nsamples = 2943\nvalue = [2540, 51, 352]\nclass = 2", fillcolor="#e99558"] ;
1 -> 71 ;
72 [label="Prothrombin <= 10.95\ngini = 0.18\nsamples = 2274\nvalue = [2051, 41, 182]\nclass = 2", fillcolor="#e88e4e"] ;
71 -> 72 ;
73 [label="Hepatomegaly <= 0.5\ngini = 0.15\nsamples = 2019\nvalue = [1857, 34, 128]\nclass = 2", fillcolor="#e78c4a"] ;
72 -> 73 ;
74 [label="SGOT <= 128.18\ngini = 0.114\nsamples = 1544\nvalue = [1451, 20, 73]\nclass = 2", fillcolor="#e78946"] ;
73 -> 74 ;
75 [label="Albumin <= 2.95\ngini = 0.091\nsamples = 1245\nvalue = [1186, 12, 47]\nclass = 2", fillcolor="#e68743"] ;
74 -> 75 ;
76 [label="Albumin <= 2.84\ngini = 0.444\nsamples = 9\nvalue = [6, 0, 3]\nclass = 2", fillcolor="#f2c09c"] ;
75 -> 76 ;
77 [label="gini = 0.0\nsamples = 5\nvalue = [5, 0, 0]\nclass = 2", fillcolor="#e58139"] ;
76 -> 77 ;
78 [label="Tryglicerides <= 109.0\ngini = 0.375\nsamples = 4\nvalue = [1, 0, 3]\nclass = 1", fillcolor="#ab7bee"] ;
76 -> 78 ;
79 [label="gini = 0.0\nsamples = 3\nvalue = [0, 0, 3]\nclass = 1", fillcolor="#8139e5"] ;
78 -> 79 ;
80 [label="gini = 0.0\nsamples = 1\nvalue = [1, 0, 0]\nclass = 2", fillcolor="#e58139"] ;
78 -> 80 ;
81 [label="Sex <= 0.5\ngini = 0.087\nsamples = 1236\nvalue = [1180, 12, 44]\nclass = 2", fillcolor="#e68742"] ;
75 -> 81 ;
82 [label="Platelets <= 490.0\ngini = 0.08\nsamples = 1205\nvalue = [1155, 11, 39]\nclass = 2", fillcolor="#e68641"] ;
81 -> 82 ;
83 [label="Bilirubin <= 0.299\ngini = 0.076\nsamples = 1195\nvalue = [1148, 11, 36]\nclass = 2", fillcolor="#e68641"] ;
82 -> 83 ;
84 [label="Tryglicerides <= 80.0\ngini = 0.32\nsamples = 20\nvalue = [16, 0, 4]\nclass = 2", fillcolor="#eca06a"] ;
83 -> 84 ;
85 [label="Stage <= 2.5\ngini = 0.48\nsamples = 10\nvalue = [6, 0, 4]\nclass = 2", fillcolor="#f6d5bd"] ;
84 -> 85 ;
86 [label="Cholesterol <= 225.0\ngini = 0.444\nsamples = 6\nvalue = [2, 0, 4]\nclass = 1", fillcolor="#c09cf2"] ;
85 -> 86 ;
87 [label="gini = 0.0\nsamples = 2\nvalue = [2, 0, 0]\nclass = 2", fillcolor="#e58139"] ;
86 -> 87 ;
88 [label="gini = 0.0\nsamples = 4\nvalue = [0, 0, 4]\nclass = 1", fillcolor="#8139e5"] ;
86 -> 88 ;
89 [label="gini = 0.0\nsamples = 4\nvalue = [4, 0, 0]\nclass = 2", fillcolor="#e58139"] ;
85 -> 89 ;
90 [label="gini = 0.0\nsamples = 10\nvalue = [10, 0, 0]\nclass = 2", fillcolor="#e58139"] ;
84 -> 90 ;
91 [label="Prothrombin <= 9.05\ngini = 0.071\nsamples = 1175\nvalue = [1132, 11, 32]\nclass = 2", fillcolor="#e68640"] ;
83 -> 91 ;
92 [label="Cholesterol <= 338.0\ngini = 0.444\nsamples = 3\nvalue = [2, 0, 1]\nclass = 2", fillcolor="#f2c09c"] ;
91 -> 92 ;
93 [label="gini = 0.0\nsamples = 2\nvalue = [2, 0, 0]\nclass = 2", fillcolor="#e58139"] ;
92 -> 93 ;
94 [label="gini = 0.0\nsamples = 1\nvalue = [0, 0, 1]\nclass = 1", fillcolor="#8139e5"] ;
92 -> 94 ;
95 [label="Cholesterol <= 129.5\ngini = 0.07\nsamples = 1172\nvalue = [1130, 11, 31]\nclass = 2", fillcolor="#e68640"] ;
91 -> 95 ;
96 [label="Albumin <= 3.52\ngini = 0.298\nsamples = 11\nvalue = [9, 0, 2]\nclass = 2", fillcolor="#eb9d65"] ;
95 -> 96 ;
97 [label="gini = 0.0\nsamples = 2\nvalue = [0, 0, 2]\nclass = 1", fillcolor="#8139e5"] ;
96 -> 97 ;
98 [label="gini = 0.0\nsamples = 9\nvalue = [9, 0, 0]\nclass = 2", fillcolor="#e58139"] ;
96 -> 98 ;
99 [label="N_Days <= 3077.5\ngini = 0.067\nsamples = 1161\nvalue = [1121, 11, 29]\nclass = 2", fillcolor="#e68540"] ;
95 -> 99 ;
100 [label="Cholesterol <= 667.0\ngini = 0.055\nsamples = 932\nvalue = [906, 10, 16]\nclass = 2", fillcolor="#e6853f"] ;
99 -> 100 ;
101 [label="Albumin <= 4.34\ngini = 0.053\nsamples = 929\nvalue = [904, 10, 15]\nclass = 2", fillcolor="#e6843e"] ;
100 -> 101 ;
102 [label="Platelets <= 443.5\ngini = 0.049\nsamples = 915\nvalue = [892, 10, 13]\nclass = 2", fillcolor="#e6843e"] ;
101 -> 102 ;
103 [label="Alk_Phos <= 5.705\ngini = 0.043\nsamples = 874\nvalue = [855, 7, 12]\nclass = 2", fillcolor="#e6843d"] ;
102 -> 103 ;
104 [label="Bilirubin <= 0.765\ngini = 0.278\nsamples = 6\nvalue = [5, 1, 0]\nclass = 2", fillcolor="#ea9a61"] ;
103 -> 104 ;
105 [label="gini = 0.0\nsamples = 5\nvalue = [5, 0, 0]\nclass = 2", fillcolor="#e58139"] ;
104 -> 105 ;
106 [label="gini = 0.0\nsamples = 1\nvalue = [0, 1, 0]\nclass = 0", fillcolor="#39e581"] ;
104 -> 106 ;
107 [label="Prothrombin <= 9.95\ngini = 0.041\nsamples = 868\nvalue = [850, 6, 12]\nclass = 2", fillcolor="#e6843d"] ;
103 -> 107 ;
108 [label="gini = 0.0\nsamples = 294\nvalue = [294, 0, 0]\nclass = 2", fillcolor="#e58139"] ;
107 -> 108 ;
109 [label="Platelets <= 272.0\ngini = 0.061\nsamples = 574\nvalue = [556, 6, 12]\nclass = 2", fillcolor="#e6853f"] ;
107 -> 109 ;
110 [label="SGOT <= 44.2\ngini = 0.089\nsamples = 304\nvalue = [290, 3, 11]\nclass = 2", fillcolor="#e68742"] ;
109 -> 110 ;
111 [label="Platelets <= 266.5\ngini = 0.444\nsamples = 3\nvalue = [2, 0, 1]\nclass = 2", fillcolor="#f2c09c"] ;
110 -> 111 ;
112 [label="gini = 0.0\nsamples = 2\nvalue = [2, 0, 0]\nclass = 2", fillcolor="#e58139"] ;
111 -> 112 ;
113 [label="gini = 0.0\nsamples = 1\nvalue = [0, 0, 1]\nclass = 1", fillcolor="#8139e5"] ;
111 -> 113 ;
114 [label="Platelets <= 270.5\ngini = 0.083\nsamples = 301\nvalue = [288, 3, 10]\nclass = 2", fillcolor="#e68742"] ;
110 -> 114 ;
115 [label="Age <= 12740.0\ngini = 0.069\nsamples = 283\nvalue = [273, 2, 8]\nclass = 2", fillcolor="#e68640"] ;
114 -> 115 ;
116 [label="SGOT <= 119.125\ngini = 0.219\nsamples = 16\nvalue = [14, 2, 0]\nclass = 2", fillcolor="#e99355"] ;
115 -> 116 ;
117 [label="Albumin <= 3.895\ngini = 0.124\nsamples = 15\nvalue = [14, 1, 0]\nclass = 2", fillcolor="#e78a47"] ;
116 -> 117 ;
118 [label="gini = 0.0\nsamples = 13\nvalue = [13, 0, 0]\nclass = 2", fillcolor="#e58139"] ;
117 -> 118 ;
119 [label="Cholesterol <= 256.0\ngini = 0.5\nsamples = 2\nvalue = [1, 1, 0]\nclass = 2", fillcolor="#ffffff"] ;
117 -> 119 ;
120 [label="gini = 0.0\nsamples = 1\nvalue = [0, 1, 0]\nclass = 0", fillcolor="#39e581"] ;
119 -> 120 ;
121 [label="gini = 0.0\nsamples = 1\nvalue = [1, 0, 0]\nclass = 2", fillcolor="#e58139"] ;
119 -> 121 ;
122 [label="gini = 0.0\nsamples = 1\nvalue = [0, 1, 0]\nclass = 0", fillcolor="#39e581"] ;
116 -> 122 ;
123 [label="Tryglicerides <= 204.0\ngini = 0.058\nsamples = 267\nvalue = [259, 0, 8]\nclass = 2", fillcolor="#e6853f"] ;
115 -> 123 ;
124 [label="Copper <= 23.5\ngini = 0.052\nsamples = 262\nvalue = [255, 0, 7]\nclass = 2", fillcolor="#e6843e"] ;
123 -> 124 ;
125 [label="Age <= 20406.5\ngini = 0.128\nsamples = 58\nvalue = [54, 0, 4]\nclass = 2", fillcolor="#e78a48"] ;
124 -> 125 ;
126 [label="gini = 0.0\nsamples = 35\nvalue = [35, 0, 0]\nclass = 2", fillcolor="#e58139"] ;
125 -> 126 ;
127 [label="SGOT <= 90.675\ngini = 0.287\nsamples = 23\nvalue = [19, 0, 4]\nclass = 2", fillcolor="#ea9c63"] ;
125 -> 127 ;
128 [label="Albumin <= 3.36\ngini = 0.172\nsamples = 21\nvalue = [19, 0, 2]\nclass = 2", fillcolor="#e88e4e"] ;
127 -> 128 ;
129 [label="gini = 0.0\nsamples = 1\nvalue = [0, 0, 1]\nclass = 1", fillcolor="#8139e5"] ;
128 -> 129 ;
130 [label="Alk_Phos <= 6.194\ngini = 0.095\nsamples = 20\nvalue = [19, 0, 1]\nclass = 2", fillcolor="#e68843"] ;
128 -> 130 ;
131 [label="Prothrombin <= 10.55\ngini = 0.444\nsamples = 3\nvalue = [2, 0, 1]\nclass = 2", fillcolor="#f2c09c"] ;
130 -> 131 ;
132 [label="Bilirubin <= 0.468\ngini = 0.5\nsamples = 2\nvalue = [1, 0, 1]\nclass = 2", fillcolor="#ffffff"] ;
131 -> 132 ;
133 [label="gini = 0.0\nsamples = 1\nvalue = [0, 0, 1]\nclass = 1", fillcolor="#8139e5"] ;
132 -> 133 ;
134 [label="gini = 0.0\nsamples = 1\nvalue = [1, 0, 0]\nclass = 2", fillcolor="#e58139"] ;
132 -> 134 ;
135 [label="gini = 0.0\nsamples = 1\nvalue = [1, 0, 0]\nclass = 2", fillcolor="#e58139"] ;
131 -> 135 ;
136 [label="gini = 0.0\nsamples = 17\nvalue = [17, 0, 0]\nclass = 2", fillcolor="#e58139"] ;
130 -> 136 ;
137 [label="gini = 0.0\nsamples = 2\nvalue = [0, 0, 2]\nclass = 1", fillcolor="#8139e5"] ;
127 -> 137 ;
138 [label="Albumin <= 3.095\ngini = 0.029\nsamples = 204\nvalue = [201, 0, 3]\nclass = 2", fillcolor="#e5833c"] ;
124 -> 138 ;
139 [label="Copper <= 44.5\ngini = 0.278\nsamples = 6\nvalue = [5, 0, 1]\nclass = 2", fillcolor="#ea9a61"] ;
138 -> 139 ;
140 [label="gini = 0.0\nsamples = 5\nvalue = [5, 0, 0]\nclass = 2", fillcolor="#e58139"] ;
139 -> 140 ;
141 [label="gini = 0.0\nsamples = 1\nvalue = [0, 0, 1]\nclass = 1", fillcolor="#8139e5"] ;
139 -> 141 ;
142 [label="Bilirubin <= 0.811\ngini = 0.02\nsamples = 198\nvalue = [196, 0, 2]\nclass = 2", fillcolor="#e5823b"] ;
138 -> 142 ;
143 [label="Prothrombin <= 10.05\ngini = 0.01\nsamples = 191\nvalue = [190, 0, 1]\nclass = 2", fillcolor="#e5823a"] ;
142 -> 143 ;
144 [label="Age <= 16082.5\ngini = 0.064\nsamples = 30\nvalue = [29, 0, 1]\nclass = 2", fillcolor="#e68540"] ;
143 -> 144 ;
145 [label="Platelets <= 237.5\ngini = 0.32\nsamples = 5\nvalue = [4, 0, 1]\nclass = 2", fillcolor="#eca06a"] ;
144 -> 145 ;
146 [label="gini = 0.0\nsamples = 4\nvalue = [4, 0, 0]\nclass = 2", fillcolor="#e58139"] ;
145 -> 146 ;
147 [label="gini = 0.0\nsamples = 1\nvalue = [0, 0, 1]\nclass = 1", fillcolor="#8139e5"] ;
145 -> 147 ;
148 [label="gini = 0.0\nsamples = 25\nvalue = [25, 0, 0]\nclass = 2", fillcolor="#e58139"] ;
144 -> 148 ;
149 [label="gini = 0.0\nsamples = 161\nvalue = [161, 0, 0]\nclass = 2", fillcolor="#e58139"] ;
143 -> 149 ;
150 [label="Age <= 18425.5\ngini = 0.245\nsamples = 7\nvalue = [6, 0, 1]\nclass = 2", fillcolor="#e9965a"] ;
142 -> 150 ;
151 [label="gini = 0.0\nsamples = 6\nvalue = [6, 0, 0]\nclass = 2", fillcolor="#e58139"] ;
150 -> 151 ;
152 [label="gini = 0.0\nsamples = 1\nvalue = [0, 0, 1]\nclass = 1", fillcolor="#8139e5"] ;
150 -> 152 ;
153 [label="Bilirubin <= 0.438\ngini = 0.32\nsamples = 5\nvalue = [4, 0, 1]\nclass = 2", fillcolor="#eca06a"] ;
123 -> 153 ;
154 [label="gini = 0.0\nsamples = 1\nvalue = [0, 0, 1]\nclass = 1", fillcolor="#8139e5"] ;
153 -> 154 ;
155 [label="gini = 0.0\nsamples = 4\nvalue = [4, 0, 0]\nclass = 2", fillcolor="#e58139"] ;
153 -> 155 ;
156 [label="Albumin <= 4.06\ngini = 0.29\nsamples = 18\nvalue = [15, 1, 2]\nclass = 2", fillcolor="#ea995e"] ;
114 -> 156 ;
157 [label="Copper <= 59.5\ngini = 0.215\nsamples = 17\nvalue = [15, 1, 1]\nclass = 2", fillcolor="#e89152"] ;
156 -> 157 ;
158 [label="gini = 0.0\nsamples = 12\nvalue = [12, 0, 0]\nclass = 2", fillcolor="#e58139"] ;
157 -> 158 ;
159 [label="Copper <= 73.5\ngini = 0.56\nsamples = 5\nvalue = [3, 1, 1]\nclass = 2", fillcolor="#f2c09c"] ;
157 -> 159 ;
160 [label="Age <= 19291.0\ngini = 0.5\nsamples = 2\nvalue = [0, 1, 1]\nclass = 0", fillcolor="#ffffff"] ;
159 -> 160 ;
161 [label="gini = 0.0\nsamples = 1\nvalue = [0, 0, 1]\nclass = 1", fillcolor="#8139e5"] ;
160 -> 161 ;
162 [label="gini = 0.0\nsamples = 1\nvalue = [0, 1, 0]\nclass = 0", fillcolor="#39e581"] ;
160 -> 162 ;
163 [label="gini = 0.0\nsamples = 3\nvalue = [3, 0, 0]\nclass = 2", fillcolor="#e58139"] ;
159 -> 163 ;
164 [label="gini = 0.0\nsamples = 1\nvalue = [0, 0, 1]\nclass = 1", fillcolor="#8139e5"] ;
156 -> 164 ;
165 [label="Copper <= 150.0\ngini = 0.029\nsamples = 270\nvalue = [266, 3, 1]\nclass = 2", fillcolor="#e5833c"] ;
109 -> 165 ;
166 [label="Bilirubin <= 0.811\ngini = 0.022\nsamples = 266\nvalue = [263, 3, 0]\nclass = 2", fillcolor="#e5823b"] ;
165 -> 166 ;
167 [label="SGOT <= 92.5\ngini = 0.015\nsamples = 259\nvalue = [257, 2, 0]\nclass = 2", fillcolor="#e5823b"] ;
166 -> 167 ;
168 [label="gini = 0.0\nsamples = 177\nvalue = [177, 0, 0]\nclass = 2", fillcolor="#e58139"] ;
167 -> 168 ;
169 [label="Albumin <= 4.035\ngini = 0.048\nsamples = 82\nvalue = [80, 2, 0]\nclass = 2", fillcolor="#e6843e"] ;
167 -> 169 ;
170 [label="Copper <= 26.0\ngini = 0.027\nsamples = 74\nvalue = [73, 1, 0]\nclass = 2", fillcolor="#e5833c"] ;
169 -> 170 ;
171 [label="Copper <= 24.5\ngini = 0.165\nsamples = 11\nvalue = [10, 1, 0]\nclass = 2", fillcolor="#e88e4d"] ;
170 -> 171 ;
172 [label="gini = 0.0\nsamples = 10\nvalue = [10, 0, 0]\nclass = 2", fillcolor="#e58139"] ;
171 -> 172 ;
173 [label="gini = 0.0\nsamples = 1\nvalue = [0, 1, 0]\nclass = 0", fillcolor="#39e581"] ;
171 -> 173 ;
174 [label="gini = 0.0\nsamples = 63\nvalue = [63, 0, 0]\nclass = 2", fillcolor="#e58139"] ;
170 -> 174 ;
175 [label="Age <= 19990.0\ngini = 0.219\nsamples = 8\nvalue = [7, 1, 0]\nclass = 2", fillcolor="#e99355"] ;
169 -> 175 ;
176 [label="gini = 0.0\nsamples = 7\nvalue = [7, 0, 0]\nclass = 2", fillcolor="#e58139"] ;
175 -> 176 ;
177 [label="gini = 0.0\nsamples = 1\nvalue = [0, 1, 0]\nclass = 0", fillcolor="#39e581"] ;
175 -> 177 ;
178 [label="Tryglicerides <= 85.5\ngini = 0.245\nsamples = 7\nvalue = [6, 1, 0]\nclass = 2", fillcolor="#e9965a"] ;
166 -> 178 ;
179 [label="gini = 0.0\nsamples = 1\nvalue = [0, 1, 0]\nclass = 0", fillcolor="#39e581"] ;
178 -> 179 ;
180 [label="gini = 0.0\nsamples = 6\nvalue = [6, 0, 0]\nclass = 2", fillcolor="#e58139"] ;
178 -> 180 ;
181 [label="Albumin <= 3.53\ngini = 0.375\nsamples = 4\nvalue = [3, 0, 1]\nclass = 2", fillcolor="#eeab7b"] ;
165 -> 181 ;
182 [label="gini = 0.0\nsamples = 1\nvalue = [0, 0, 1]\nclass = 1", fillcolor="#8139e5"] ;
181 -> 182 ;
183 [label="gini = 0.0\nsamples = 3\nvalue = [3, 0, 0]\nclass = 2", fillcolor="#e58139"] ;
181 -> 183 ;
184 [label="Tryglicerides <= 110.0\ngini = 0.18\nsamples = 41\nvalue = [37, 3, 1]\nclass = 2", fillcolor="#e88e4e"] ;
102 -> 184 ;
185 [label="gini = 0.0\nsamples = 30\nvalue = [30, 0, 0]\nclass = 2", fillcolor="#e58139"] ;
184 -> 185 ;
186 [label="Albumin <= 3.65\ngini = 0.512\nsamples = 11\nvalue = [7, 3, 1]\nclass = 2", fillcolor="#f2c09c"] ;
184 -> 186 ;
187 [label="Prothrombin <= 9.75\ngini = 0.245\nsamples = 7\nvalue = [6, 0, 1]\nclass = 2", fillcolor="#e9965a"] ;
186 -> 187 ;
188 [label="gini = 0.0\nsamples = 1\nvalue = [0, 0, 1]\nclass = 1", fillcolor="#8139e5"] ;
187 -> 188 ;
189 [label="gini = 0.0\nsamples = 6\nvalue = [6, 0, 0]\nclass = 2", fillcolor="#e58139"] ;
187 -> 189 ;
190 [label="Bilirubin <= 0.5\ngini = 0.375\nsamples = 4\nvalue = [1, 3, 0]\nclass = 0", fillcolor="#7beeab"] ;
186 -> 190 ;
191 [label="gini = 0.0\nsamples = 3\nvalue = [0, 3, 0]\nclass = 0", fillcolor="#39e581"] ;
190 -> 191 ;
192 [label="gini = 0.0\nsamples = 1\nvalue = [1, 0, 0]\nclass = 2", fillcolor="#e58139"] ;
190 -> 192 ;
193 [label="Copper <= 25.5\ngini = 0.245\nsamples = 14\nvalue = [12, 0, 2]\nclass = 2", fillcolor="#e9965a"] ;
101 -> 193 ;
194 [label="Age <= 15757.5\ngini = 0.444\nsamples = 3\nvalue = [1, 0, 2]\nclass = 1", fillcolor="#c09cf2"] ;
193 -> 194 ;
195 [label="gini = 0.0\nsamples = 1\nvalue = [1, 0, 0]\nclass = 2", fillcolor="#e58139"] ;
194 -> 195 ;
196 [label="gini = 0.0\nsamples = 2\nvalue = [0, 0, 2]\nclass = 1", fillcolor="#8139e5"] ;
194 -> 196 ;
197 [label="gini = 0.0\nsamples = 11\nvalue = [11, 0, 0]\nclass = 2", fillcolor="#e58139"] ;
193 -> 197 ;
198 [label="Alk_Phos <= 7.405\ngini = 0.444\nsamples = 3\nvalue = [2, 0, 1]\nclass = 2", fillcolor="#f2c09c"] ;
100 -> 198 ;
199 [label="gini = 0.0\nsamples = 2\nvalue = [2, 0, 0]\nclass = 2", fillcolor="#e58139"] ;
198 -> 199 ;
200 [label="gini = 0.0\nsamples = 1\nvalue = [0, 0, 1]\nclass = 1", fillcolor="#8139e5"] ;
198 -> 200 ;
201 [label="Copper <= 46.0\ngini = 0.115\nsamples = 229\nvalue = [215, 1, 13]\nclass = 2", fillcolor="#e78946"] ;
99 -> 201 ;
202 [label="Albumin <= 3.455\ngini = 0.039\nsamples = 151\nvalue = [148, 0, 3]\nclass = 2", fillcolor="#e6843d"] ;
201 -> 202 ;
203 [label="SGOT <= 62.0\ngini = 0.175\nsamples = 31\nvalue = [28, 0, 3]\nclass = 2", fillcolor="#e88e4e"] ;
202 -> 203 ;
204 [label="Tryglicerides <= 107.0\ngini = 0.444\nsamples = 6\nvalue = [4, 0, 2]\nclass = 2", fillcolor="#f2c09c"] ;
203 -> 204 ;
205 [label="Cholesterol <= 190.0\ngini = 0.444\nsamples = 3\nvalue = [1, 0, 2]\nclass = 1", fillcolor="#c09cf2"] ;
204 -> 205 ;
206 [label="gini = 0.0\nsamples = 1\nvalue = [1, 0, 0]\nclass = 2", fillcolor="#e58139"] ;
205 -> 206 ;
207 [label="gini = 0.0\nsamples = 2\nvalue = [0, 0, 2]\nclass = 1", fillcolor="#8139e5"] ;
205 -> 207 ;
208 [label="gini = 0.0\nsamples = 3\nvalue = [3, 0, 0]\nclass = 2", fillcolor="#e58139"] ;
204 -> 208 ;
209 [label="Albumin <= 3.44\ngini = 0.077\nsamples = 25\nvalue = [24, 0, 1]\nclass = 2", fillcolor="#e68641"] ;
203 -> 209 ;
210 [label="gini = 0.0\nsamples = 23\nvalue = [23, 0, 0]\nclass = 2", fillcolor="#e58139"] ;
209 -> 210 ;
211 [label="Platelets <= 340.0\ngini = 0.5\nsamples = 2\nvalue = [1, 0, 1]\nclass = 2", fillcolor="#ffffff"] ;
209 -> 211 ;
212 [label="gini = 0.0\nsamples = 1\nvalue = [0, 0, 1]\nclass = 1", fillcolor="#8139e5"] ;
211 -> 212 ;
213 [label="gini = 0.0\nsamples = 1\nvalue = [1, 0, 0]\nclass = 2", fillcolor="#e58139"] ;
211 -> 213 ;
214 [label="gini = 0.0\nsamples = 120\nvalue = [120, 0, 0]\nclass = 2", fillcolor="#e58139"] ;
202 -> 214 ;
215 [label="Platelets <= 153.5\ngini = 0.246\nsamples = 78\nvalue = [67, 1, 10]\nclass = 2", fillcolor="#e99559"] ;
201 -> 215 ;
216 [label="Copper <= 50.0\ngini = 0.444\nsamples = 3\nvalue = [1, 0, 2]\nclass = 1", fillcolor="#c09cf2"] ;
215 -> 216 ;
217 [label="gini = 0.0\nsamples = 1\nvalue = [1, 0, 0]\nclass = 2", fillcolor="#e58139"] ;
216 -> 217 ;
218 [label="gini = 0.0\nsamples = 2\nvalue = [0, 0, 2]\nclass = 1", fillcolor="#8139e5"] ;
216 -> 218 ;
219 [label="N_Days <= 3088.0\ngini = 0.214\nsamples = 75\nvalue = [66, 1, 8]\nclass = 2", fillcolor="#e89254"] ;
215 -> 219 ;
220 [label="Bilirubin <= 0.497\ngini = 0.444\nsamples = 3\nvalue = [1, 0, 2]\nclass = 1", fillcolor="#c09cf2"] ;
219 -> 220 ;
221 [label="gini = 0.0\nsamples = 1\nvalue = [1, 0, 0]\nclass = 2", fillcolor="#e58139"] ;
220 -> 221 ;
222 [label="gini = 0.0\nsamples = 2\nvalue = [0, 0, 2]\nclass = 1", fillcolor="#8139e5"] ;
220 -> 222 ;
223 [label="SGOT <= 98.325\ngini = 0.178\nsamples = 72\nvalue = [65, 1, 6]\nclass = 2", fillcolor="#e88e4e"] ;
219 -> 223 ;
224 [label="Albumin <= 4.085\ngini = 0.042\nsamples = 47\nvalue = [46, 0, 1]\nclass = 2", fillcolor="#e6843d"] ;
223 -> 224 ;
225 [label="gini = 0.0\nsamples = 35\nvalue = [35, 0, 0]\nclass = 2", fillcolor="#e58139"] ;
224 -> 225 ;
226 [label="SGOT <= 75.95\ngini = 0.153\nsamples = 12\nvalue = [11, 0, 1]\nclass = 2", fillcolor="#e78c4b"] ;
224 -> 226 ;
227 [label="gini = 0.0\nsamples = 9\nvalue = [9, 0, 0]\nclass = 2", fillcolor="#e58139"] ;
226 -> 227 ;
228 [label="Stage <= 2.5\ngini = 0.444\nsamples = 3\nvalue = [2, 0, 1]\nclass = 2", fillcolor="#f2c09c"] ;
226 -> 228 ;
229 [label="gini = 0.0\nsamples = 1\nvalue = [0, 0, 1]\nclass = 1", fillcolor="#8139e5"] ;
228 -> 229 ;
230 [label="gini = 0.0\nsamples = 2\nvalue = [2, 0, 0]\nclass = 2", fillcolor="#e58139"] ;
228 -> 230 ;
231 [label="Age <= 12370.5\ngini = 0.381\nsamples = 25\nvalue = [19, 1, 5]\nclass = 2", fillcolor="#eda774"] ;
223 -> 231 ;
232 [label="gini = 0.0\nsamples = 1\nvalue = [0, 1, 0]\nclass = 0", fillcolor="#39e581"] ;
231 -> 232 ;
233 [label="Platelets <= 284.0\ngini = 0.33\nsamples = 24\nvalue = [19, 0, 5]\nclass = 2", fillcolor="#eca26d"] ;
231 -> 233 ;
234 [label="Copper <= 53.0\ngini = 0.494\nsamples = 9\nvalue = [5, 0, 4]\nclass = 2", fillcolor="#fae6d7"] ;
233 -> 234 ;
235 [label="gini = 0.0\nsamples = 3\nvalue = [3, 0, 0]\nclass = 2", fillcolor="#e58139"] ;
234 -> 235 ;
236 [label="Copper <= 78.5\ngini = 0.444\nsamples = 6\nvalue = [2, 0, 4]\nclass = 1", fillcolor="#c09cf2"] ;
234 -> 236 ;
237 [label="gini = 0.0\nsamples = 4\nvalue = [0, 0, 4]\nclass = 1", fillcolor="#8139e5"] ;
236 -> 237 ;
238 [label="gini = 0.0\nsamples = 2\nvalue = [2, 0, 0]\nclass = 2", fillcolor="#e58139"] ;
236 -> 238 ;
239 [label="Tryglicerides <= 193.5\ngini = 0.124\nsamples = 15\nvalue = [14, 0, 1]\nclass = 2", fillcolor="#e78a47"] ;
233 -> 239 ;
240 [label="gini = 0.0\nsamples = 14\nvalue = [14, 0, 0]\nclass = 2", fillcolor="#e58139"] ;
239 -> 240 ;
241 [label="gini = 0.0\nsamples = 1\nvalue = [0, 0, 1]\nclass = 1", fillcolor="#8139e5"] ;
239 -> 241 ;
242 [label="Drug <= 0.5\ngini = 0.42\nsamples = 10\nvalue = [7, 0, 3]\nclass = 2", fillcolor="#f0b78e"] ;
82 -> 242 ;
243 [label="Copper <= 14.0\ngini = 0.245\nsamples = 7\nvalue = [6, 0, 1]\nclass = 2", fillcolor="#e9965a"] ;
242 -> 243 ;
244 [label="gini = 0.0\nsamples = 1\nvalue = [0, 0, 1]\nclass = 1", fillcolor="#8139e5"] ;
243 -> 244 ;
245 [label="gini = 0.0\nsamples = 6\nvalue = [6, 0, 0]\nclass = 2", fillcolor="#e58139"] ;
243 -> 245 ;
246 [label="Copper <= 57.0\ngini = 0.444\nsamples = 3\nvalue = [1, 0, 2]\nclass = 1", fillcolor="#c09cf2"] ;
242 -> 246 ;
247 [label="gini = 0.0\nsamples = 1\nvalue = [1, 0, 0]\nclass = 2", fillcolor="#e58139"] ;
246 -> 247 ;
248 [label="gini = 0.0\nsamples = 2\nvalue = [0, 0, 2]\nclass = 1", fillcolor="#8139e5"] ;
246 -> 248 ;
249 [label="Age <= 20502.0\ngini = 0.323\nsamples = 31\nvalue = [25, 1, 5]\nclass = 2", fillcolor="#eb9e67"] ;
81 -> 249 ;
250 [label="Tryglicerides <= 57.0\ngini = 0.142\nsamples = 26\nvalue = [24, 0, 2]\nclass = 2", fillcolor="#e78c49"] ;
249 -> 250 ;
251 [label="gini = 0.0\nsamples = 1\nvalue = [0, 0, 1]\nclass = 1", fillcolor="#8139e5"] ;
250 -> 251 ;
252 [label="Prothrombin <= 9.55\ngini = 0.077\nsamples = 25\nvalue = [24, 0, 1]\nclass = 2", fillcolor="#e68641"] ;
250 -> 252 ;
253 [label="gini = 0.0\nsamples = 1\nvalue = [0, 0, 1]\nclass = 1", fillcolor="#8139e5"] ;
252 -> 253 ;
254 [label="gini = 0.0\nsamples = 24\nvalue = [24, 0, 0]\nclass = 2", fillcolor="#e58139"] ;
252 -> 254 ;
255 [label="Platelets <= 272.0\ngini = 0.56\nsamples = 5\nvalue = [1, 1, 3]\nclass = 1", fillcolor="#c09cf2"] ;
249 -> 255 ;
256 [label="gini = 0.0\nsamples = 3\nvalue = [0, 0, 3]\nclass = 1", fillcolor="#8139e5"] ;
255 -> 256 ;
257 [label="Copper <= 128.5\ngini = 0.5\nsamples = 2\nvalue = [1, 1, 0]\nclass = 2", fillcolor="#ffffff"] ;
255 -> 257 ;
258 [label="gini = 0.0\nsamples = 1\nvalue = [0, 1, 0]\nclass = 0", fillcolor="#39e581"] ;
257 -> 258 ;
259 [label="gini = 0.0\nsamples = 1\nvalue = [1, 0, 0]\nclass = 2", fillcolor="#e58139"] ;
257 -> 259 ;
260 [label="Albumin <= 3.99\ngini = 0.206\nsamples = 299\nvalue = [265, 8, 26]\nclass = 2", fillcolor="#e89152"] ;
74 -> 260 ;
261 [label="Age <= 24674.5\ngini = 0.165\nsamples = 281\nvalue = [256, 5, 20]\nclass = 2", fillcolor="#e78d4c"] ;
260 -> 261 ;
262 [label="Copper <= 95.0\ngini = 0.149\nsamples = 276\nvalue = [254, 5, 17]\nclass = 2", fillcolor="#e78c4a"] ;
261 -> 262 ;
263 [label="Alk_Phos <= 6.321\ngini = 0.118\nsamples = 259\nvalue = [243, 5, 11]\nclass = 2", fillcolor="#e78946"] ;
262 -> 263 ;
264 [label="gini = 0.0\nsamples = 1\nvalue = [0, 0, 1]\nclass = 1", fillcolor="#8139e5"] ;
263 -> 264 ;
265 [label="Age <= 10804.0\ngini = 0.111\nsamples = 258\nvalue = [243, 5, 10]\nclass = 2", fillcolor="#e78945"] ;
263 -> 265 ;
266 [label="gini = 0.0\nsamples = 1\nvalue = [0, 0, 1]\nclass = 1", fillcolor="#8139e5"] ;
265 -> 266 ;
267 [label="Bilirubin <= 0.765\ngini = 0.104\nsamples = 257\nvalue = [243, 5, 9]\nclass = 2", fillcolor="#e68844"] ;
265 -> 267 ;
268 [label="Platelets <= 213.5\ngini = 0.077\nsamples = 226\nvalue = [217, 4, 5]\nclass = 2", fillcolor="#e68641"] ;
267 -> 268 ;
269 [label="Platelets <= 199.0\ngini = 0.264\nsamples = 33\nvalue = [28, 1, 4]\nclass = 2", fillcolor="#e9975b"] ;
268 -> 269 ;
270 [label="Cholesterol <= 377.0\ngini = 0.135\nsamples = 28\nvalue = [26, 1, 1]\nclass = 2", fillcolor="#e78a48"] ;
269 -> 270 ;
271 [label="Age <= 12543.0\ngini = 0.074\nsamples = 26\nvalue = [25, 1, 0]\nclass = 2", fillcolor="#e68641"] ;
270 -> 271 ;
272 [label="Platelets <= 137.0\ngini = 0.444\nsamples = 3\nvalue = [2, 1, 0]\nclass = 2", fillcolor="#f2c09c"] ;
271 -> 272 ;
273 [label="gini = 0.0\nsamples = 1\nvalue = [0, 1, 0]\nclass = 0", fillcolor="#39e581"] ;
272 -> 273 ;
274 [label="gini = 0.0\nsamples = 2\nvalue = [2, 0, 0]\nclass = 2", fillcolor="#e58139"] ;
272 -> 274 ;
275 [label="gini = 0.0\nsamples = 23\nvalue = [23, 0, 0]\nclass = 2", fillcolor="#e58139"] ;
271 -> 275 ;
276 [label="SGOT <= 171.275\ngini = 0.5\nsamples = 2\nvalue = [1, 0, 1]\nclass = 2", fillcolor="#ffffff"] ;
270 -> 276 ;
277 [label="gini = 0.0\nsamples = 1\nvalue = [0, 0, 1]\nclass = 1", fillcolor="#8139e5"] ;
276 -> 277 ;
278 [label="gini = 0.0\nsamples = 1\nvalue = [1, 0, 0]\nclass = 2", fillcolor="#e58139"] ;
276 -> 278 ;
279 [label="Albumin <= 3.48\ngini = 0.48\nsamples = 5\nvalue = [2, 0, 3]\nclass = 1", fillcolor="#d5bdf6"] ;
269 -> 279 ;
280 [label="gini = 0.0\nsamples = 2\nvalue = [2, 0, 0]\nclass = 2", fillcolor="#e58139"] ;
279 -> 280 ;
281 [label="gini = 0.0\nsamples = 3\nvalue = [0, 0, 3]\nclass = 1", fillcolor="#8139e5"] ;
279 -> 281 ;
282 [label="Copper <= 83.0\ngini = 0.041\nsamples = 193\nvalue = [189, 3, 1]\nclass = 2", fillcolor="#e6843d"] ;
268 -> 282 ;
283 [label="Cholesterol <= 462.0\ngini = 0.031\nsamples = 190\nvalue = [187, 2, 1]\nclass = 2", fillcolor="#e5833c"] ;
282 -> 283 ;
284 [label="Tryglicerides <= 55.5\ngini = 0.021\nsamples = 185\nvalue = [183, 2, 0]\nclass = 2", fillcolor="#e5823b"] ;
283 -> 284 ;
285 [label="Cholesterol <= 255.0\ngini = 0.165\nsamples = 11\nvalue = [10, 1, 0]\nclass = 2", fillcolor="#e88e4d"] ;
284 -> 285 ;
286 [label="gini = 0.0\nsamples = 1\nvalue = [0, 1, 0]\nclass = 0", fillcolor="#39e581"] ;
285 -> 286 ;
287 [label="gini = 0.0\nsamples = 10\nvalue = [10, 0, 0]\nclass = 2", fillcolor="#e58139"] ;
285 -> 287 ;
288 [label="Platelets <= 340.5\ngini = 0.011\nsamples = 174\nvalue = [173, 1, 0]\nclass = 2", fillcolor="#e5823a"] ;
284 -> 288 ;
289 [label="gini = 0.0\nsamples = 133\nvalue = [133, 0, 0]\nclass = 2", fillcolor="#e58139"] ;
288 -> 289 ;
290 [label="Platelets <= 342.5\ngini = 0.048\nsamples = 41\nvalue = [40, 1, 0]\nclass = 2", fillcolor="#e6843e"] ;
288 -> 290 ;
291 [label="SGOT <= 136.4\ngini = 0.444\nsamples = 3\nvalue = [2, 1, 0]\nclass = 2", fillcolor="#f2c09c"] ;
290 -> 291 ;
292 [label="gini = 0.0\nsamples = 2\nvalue = [2, 0, 0]\nclass = 2", fillcolor="#e58139"] ;
291 -> 292 ;
293 [label="gini = 0.0\nsamples = 1\nvalue = [0, 1, 0]\nclass = 0", fillcolor="#39e581"] ;
291 -> 293 ;
294 [label="gini = 0.0\nsamples = 38\nvalue = [38, 0, 0]\nclass = 2", fillcolor="#e58139"] ;
290 -> 294 ;
295 [label="Cholesterol <= 471.0\ngini = 0.32\nsamples = 5\nvalue = [4, 0, 1]\nclass = 2", fillcolor="#eca06a"] ;
283 -> 295 ;
296 [label="gini = 0.0\nsamples = 1\nvalue = [0, 0, 1]\nclass = 1", fillcolor="#8139e5"] ;
295 -> 296 ;
297 [label="gini = 0.0\nsamples = 4\nvalue = [4, 0, 0]\nclass = 2", fillcolor="#e58139"] ;
295 -> 297 ;
298 [label="N_Days <= 1607.5\ngini = 0.444\nsamples = 3\nvalue = [2, 1, 0]\nclass = 2", fillcolor="#f2c09c"] ;
282 -> 298 ;
299 [label="gini = 0.0\nsamples = 1\nvalue = [0, 1, 0]\nclass = 0", fillcolor="#39e581"] ;
298 -> 299 ;
300 [label="gini = 0.0\nsamples = 2\nvalue = [2, 0, 0]\nclass = 2", fillcolor="#e58139"] ;
298 -> 300 ;
301 [label="Sex <= 0.5\ngini = 0.279\nsamples = 31\nvalue = [26, 1, 4]\nclass = 2", fillcolor="#ea985e"] ;
267 -> 301 ;
302 [label="Platelets <= 412.0\ngini = 0.238\nsamples = 30\nvalue = [26, 1, 3]\nclass = 2", fillcolor="#e99456"] ;
301 -> 302 ;
303 [label="SGOT <= 131.75\ngini = 0.137\nsamples = 27\nvalue = [25, 0, 2]\nclass = 2", fillcolor="#e78b49"] ;
302 -> 303 ;
304 [label="Alk_Phos <= 7.046\ngini = 0.408\nsamples = 7\nvalue = [5, 0, 2]\nclass = 2", fillcolor="#efb388"] ;
303 -> 304 ;
305 [label="gini = 0.0\nsamples = 4\nvalue = [4, 0, 0]\nclass = 2", fillcolor="#e58139"] ;
304 -> 305 ;
306 [label="Copper <= 26.0\ngini = 0.444\nsamples = 3\nvalue = [1, 0, 2]\nclass = 1", fillcolor="#c09cf2"] ;
304 -> 306 ;
307 [label="gini = 0.0\nsamples = 1\nvalue = [1, 0, 0]\nclass = 2", fillcolor="#e58139"] ;
306 -> 307 ;
308 [label="gini = 0.0\nsamples = 2\nvalue = [0, 0, 2]\nclass = 1", fillcolor="#8139e5"] ;
306 -> 308 ;
309 [label="gini = 0.0\nsamples = 20\nvalue = [20, 0, 0]\nclass = 2", fillcolor="#e58139"] ;
303 -> 309 ;
310 [label="Cholesterol <= 274.5\ngini = 0.667\nsamples = 3\nvalue = [1, 1, 1]\nclass = 2", fillcolor="#ffffff"] ;
302 -> 310 ;
311 [label="gini = 0.0\nsamples = 1\nvalue = [0, 1, 0]\nclass = 0", fillcolor="#39e581"] ;
310 -> 311 ;
312 [label="Alk_Phos <= 7.363\ngini = 0.5\nsamples = 2\nvalue = [1, 0, 1]\nclass = 2", fillcolor="#ffffff"] ;
310 -> 312 ;
313 [label="gini = 0.0\nsamples = 1\nvalue = [1, 0, 0]\nclass = 2", fillcolor="#e58139"] ;
312 -> 313 ;
314 [label="gini = 0.0\nsamples = 1\nvalue = [0, 0, 1]\nclass = 1", fillcolor="#8139e5"] ;
312 -> 314 ;
315 [label="gini = 0.0\nsamples = 1\nvalue = [0, 0, 1]\nclass = 1", fillcolor="#8139e5"] ;
301 -> 315 ;
316 [label="Platelets <= 260.5\ngini = 0.457\nsamples = 17\nvalue = [11, 0, 6]\nclass = 2", fillcolor="#f3c6a5"] ;
262 -> 316 ;
317 [label="gini = 0.0\nsamples = 5\nvalue = [5, 0, 0]\nclass = 2", fillcolor="#e58139"] ;
316 -> 317 ;
318 [label="Platelets <= 402.0\ngini = 0.5\nsamples = 12\nvalue = [6, 0, 6]\nclass = 2", fillcolor="#ffffff"] ;
316 -> 318 ;
319 [label="Alk_Phos <= 8.2\ngini = 0.278\nsamples = 6\nvalue = [1, 0, 5]\nclass = 1", fillcolor="#9a61ea"] ;
318 -> 319 ;
320 [label="gini = 0.0\nsamples = 5\nvalue = [0, 0, 5]\nclass = 1", fillcolor="#8139e5"] ;
319 -> 320 ;
321 [label="gini = 0.0\nsamples = 1\nvalue = [1, 0, 0]\nclass = 2", fillcolor="#e58139"] ;
319 -> 321 ;
322 [label="Copper <= 160.0\ngini = 0.278\nsamples = 6\nvalue = [5, 0, 1]\nclass = 2", fillcolor="#ea9a61"] ;
318 -> 322 ;
323 [label="gini = 0.0\nsamples = 5\nvalue = [5, 0, 0]\nclass = 2", fillcolor="#e58139"] ;
322 -> 323 ;
324 [label="gini = 0.0\nsamples = 1\nvalue = [0, 0, 1]\nclass = 1", fillcolor="#8139e5"] ;
322 -> 324 ;
325 [label="Alk_Phos <= 7.249\ngini = 0.48\nsamples = 5\nvalue = [2, 0, 3]\nclass = 1", fillcolor="#d5bdf6"] ;
261 -> 325 ;
326 [label="gini = 0.0\nsamples = 2\nvalue = [2, 0, 0]\nclass = 2", fillcolor="#e58139"] ;
325 -> 326 ;
327 [label="gini = 0.0\nsamples = 3\nvalue = [0, 0, 3]\nclass = 1", fillcolor="#8139e5"] ;
325 -> 327 ;
328 [label="Prothrombin <= 10.4\ngini = 0.611\nsamples = 18\nvalue = [9, 3, 6]\nclass = 2", fillcolor="#f8e0ce"] ;
260 -> 328 ;
329 [label="Bilirubin <= 0.787\ngini = 0.43\nsamples = 11\nvalue = [8, 2, 1]\nclass = 2", fillcolor="#eeab7b"] ;
328 -> 329 ;
330 [label="gini = 0.0\nsamples = 7\nvalue = [7, 0, 0]\nclass = 2", fillcolor="#e58139"] ;
329 -> 330 ;
331 [label="Cholesterol <= 362.0\ngini = 0.625\nsamples = 4\nvalue = [1, 2, 1]\nclass = 0", fillcolor="#bdf6d5"] ;
329 -> 331 ;
332 [label="gini = 0.0\nsamples = 2\nvalue = [0, 2, 0]\nclass = 0", fillcolor="#39e581"] ;
331 -> 332 ;
333 [label="Prothrombin <= 10.0\ngini = 0.5\nsamples = 2\nvalue = [1, 0, 1]\nclass = 2", fillcolor="#ffffff"] ;
331 -> 333 ;
334 [label="gini = 0.0\nsamples = 1\nvalue = [1, 0, 0]\nclass = 2", fillcolor="#e58139"] ;
333 -> 334 ;
335 [label="gini = 0.0\nsamples = 1\nvalue = [0, 0, 1]\nclass = 1", fillcolor="#8139e5"] ;
333 -> 335 ;
336 [label="Bilirubin <= 0.692\ngini = 0.449\nsamples = 7\nvalue = [1, 1, 5]\nclass = 1", fillcolor="#ab7bee"] ;
328 -> 336 ;
337 [label="SGOT <= 133.3\ngini = 0.278\nsamples = 6\nvalue = [0, 1, 5]\nclass = 1", fillcolor="#9a61ea"] ;
336 -> 337 ;
338 [label="gini = 0.0\nsamples = 1\nvalue = [0, 1, 0]\nclass = 0", fillcolor="#39e581"] ;
337 -> 338 ;
339 [label="gini = 0.0\nsamples = 5\nvalue = [0, 0, 5]\nclass = 1", fillcolor="#8139e5"] ;
337 -> 339 ;
340 [label="gini = 0.0\nsamples = 1\nvalue = [1, 0, 0]\nclass = 2", fillcolor="#e58139"] ;
336 -> 340 ;
341 [label="N_Days <= 1106.5\ngini = 0.255\nsamples = 475\nvalue = [406, 14, 55]\nclass = 2", fillcolor="#e9965a"] ;
73 -> 341 ;
342 [label="N_Days <= 984.0\ngini = 0.569\nsamples = 12\nvalue = [5, 1, 6]\nclass = 1", fillcolor="#ede3fb"] ;
341 -> 342 ;
343 [label="gini = 0.0\nsamples = 4\nvalue = [4, 0, 0]\nclass = 2", fillcolor="#e58139"] ;
342 -> 343 ;
344 [label="Alk_Phos <= 6.212\ngini = 0.406\nsamples = 8\nvalue = [1, 1, 6]\nclass = 1", fillcolor="#a572ec"] ;
342 -> 344 ;
345 [label="gini = 0.0\nsamples = 1\nvalue = [0, 1, 0]\nclass = 0", fillcolor="#39e581"] ;
344 -> 345 ;
346 [label="Tryglicerides <= 69.0\ngini = 0.245\nsamples = 7\nvalue = [1, 0, 6]\nclass = 1", fillcolor="#965ae9"] ;
344 -> 346 ;
347 [label="gini = 0.0\nsamples = 1\nvalue = [1, 0, 0]\nclass = 2", fillcolor="#e58139"] ;
346 -> 347 ;
348 [label="gini = 0.0\nsamples = 6\nvalue = [0, 0, 6]\nclass = 1", fillcolor="#8139e5"] ;
346 -> 348 ;
349 [label="SGOT <= 106.175\ngini = 0.238\nsamples = 463\nvalue = [401, 13, 49]\nclass = 2", fillcolor="#e99457"] ;
341 -> 349 ;
350 [label="Alk_Phos <= 9.362\ngini = 0.133\nsamples = 268\nvalue = [249, 3, 16]\nclass = 2", fillcolor="#e78a48"] ;
349 -> 350 ;
351 [label="Sex <= 0.5\ngini = 0.127\nsamples = 267\nvalue = [249, 3, 15]\nclass = 2", fillcolor="#e78a47"] ;
350 -> 351 ;
352 [label="Age <= 23515.0\ngini = 0.111\nsamples = 257\nvalue = [242, 3, 12]\nclass = 2", fillcolor="#e78945"] ;
351 -> 352 ;
353 [label="Alk_Phos <= 8.833\ngini = 0.089\nsamples = 239\nvalue = [228, 3, 8]\nclass = 2", fillcolor="#e68742"] ;
352 -> 353 ;
354 [label="Prothrombin <= 10.05\ngini = 0.074\nsamples = 234\nvalue = [225, 2, 7]\nclass = 2", fillcolor="#e68641"] ;
353 -> 354 ;
355 [label="Tryglicerides <= 56.0\ngini = 0.031\nsamples = 129\nvalue = [127, 0, 2]\nclass = 2", fillcolor="#e5833c"] ;
354 -> 355 ;
356 [label="Spiders <= 0.5\ngini = 0.444\nsamples = 3\nvalue = [2, 0, 1]\nclass = 2", fillcolor="#f2c09c"] ;
355 -> 356 ;
357 [label="gini = 0.0\nsamples = 2\nvalue = [2, 0, 0]\nclass = 2", fillcolor="#e58139"] ;
356 -> 357 ;
358 [label="gini = 0.0\nsamples = 1\nvalue = [0, 0, 1]\nclass = 1", fillcolor="#8139e5"] ;
356 -> 358 ;
359 [label="Alk_Phos <= 7.958\ngini = 0.016\nsamples = 126\nvalue = [125, 0, 1]\nclass = 2", fillcolor="#e5823b"] ;
355 -> 359 ;
360 [label="gini = 0.0\nsamples = 117\nvalue = [117, 0, 0]\nclass = 2", fillcolor="#e58139"] ;
359 -> 360 ;
361 [label="Copper <= 84.0\ngini = 0.198\nsamples = 9\nvalue = [8, 0, 1]\nclass = 2", fillcolor="#e89152"] ;
359 -> 361 ;
362 [label="gini = 0.0\nsamples = 8\nvalue = [8, 0, 0]\nclass = 2", fillcolor="#e58139"] ;
361 -> 362 ;
363 [label="gini = 0.0\nsamples = 1\nvalue = [0, 0, 1]\nclass = 1", fillcolor="#8139e5"] ;
361 -> 363 ;
364 [label="Drug <= 0.5\ngini = 0.126\nsamples = 105\nvalue = [98, 2, 5]\nclass = 2", fillcolor="#e78a47"] ;
354 -> 364 ;
365 [label="gini = 0.0\nsamples = 42\nvalue = [42, 0, 0]\nclass = 2", fillcolor="#e58139"] ;
364 -> 365 ;
366 [label="Cholesterol <= 250.0\ngini = 0.203\nsamples = 63\nvalue = [56, 2, 5]\nclass = 2", fillcolor="#e89051"] ;
364 -> 366 ;
367 [label="Cholesterol <= 230.0\ngini = 0.332\nsamples = 19\nvalue = [15, 0, 4]\nclass = 2", fillcolor="#eca36e"] ;
366 -> 367 ;
368 [label="gini = 0.0\nsamples = 11\nvalue = [11, 0, 0]\nclass = 2", fillcolor="#e58139"] ;
367 -> 368 ;
369 [label="Alk_Phos <= 6.862\ngini = 0.5\nsamples = 8\nvalue = [4, 0, 4]\nclass = 2", fillcolor="#ffffff"] ;
367 -> 369 ;
370 [label="Alk_Phos <= 6.483\ngini = 0.32\nsamples = 5\nvalue = [1, 0, 4]\nclass = 1", fillcolor="#a06aec"] ;
369 -> 370 ;
371 [label="gini = 0.0\nsamples = 1\nvalue = [1, 0, 0]\nclass = 2", fillcolor="#e58139"] ;
370 -> 371 ;
372 [label="gini = 0.0\nsamples = 4\nvalue = [0, 0, 4]\nclass = 1", fillcolor="#8139e5"] ;
370 -> 372 ;
373 [label="gini = 0.0\nsamples = 3\nvalue = [3, 0, 0]\nclass = 2", fillcolor="#e58139"] ;
369 -> 373 ;
374 [label="Cholesterol <= 461.0\ngini = 0.129\nsamples = 44\nvalue = [41, 2, 1]\nclass = 2", fillcolor="#e78a47"] ;
366 -> 374 ;
375 [label="Platelets <= 437.5\ngini = 0.091\nsamples = 42\nvalue = [40, 2, 0]\nclass = 2", fillcolor="#e68743"] ;
374 -> 375 ;
376 [label="Tryglicerides <= 60.5\ngini = 0.049\nsamples = 40\nvalue = [39, 1, 0]\nclass = 2", fillcolor="#e6843e"] ;
375 -> 376 ;
377 [label="Platelets <= 335.0\ngini = 0.219\nsamples = 8\nvalue = [7, 1, 0]\nclass = 2", fillcolor="#e99355"] ;
376 -> 377 ;
378 [label="gini = 0.0\nsamples = 6\nvalue = [6, 0, 0]\nclass = 2", fillcolor="#e58139"] ;
377 -> 378 ;
379 [label="Tryglicerides <= 58.5\ngini = 0.5\nsamples = 2\nvalue = [1, 1, 0]\nclass = 2", fillcolor="#ffffff"] ;
377 -> 379 ;
380 [label="gini = 0.0\nsamples = 1\nvalue = [1, 0, 0]\nclass = 2", fillcolor="#e58139"] ;
379 -> 380 ;
381 [label="gini = 0.0\nsamples = 1\nvalue = [0, 1, 0]\nclass = 0", fillcolor="#39e581"] ;
379 -> 381 ;
382 [label="gini = 0.0\nsamples = 32\nvalue = [32, 0, 0]\nclass = 2", fillcolor="#e58139"] ;
376 -> 382 ;
383 [label="Bilirubin <= 0.468\ngini = 0.5\nsamples = 2\nvalue = [1, 1, 0]\nclass = 2", fillcolor="#ffffff"] ;
375 -> 383 ;
384 [label="gini = 0.0\nsamples = 1\nvalue = [0, 1, 0]\nclass = 0", fillcolor="#39e581"] ;
383 -> 384 ;
385 [label="gini = 0.0\nsamples = 1\nvalue = [1, 0, 0]\nclass = 2", fillcolor="#e58139"] ;
383 -> 385 ;
386 [label="Copper <= 101.5\ngini = 0.5\nsamples = 2\nvalue = [1, 0, 1]\nclass = 2", fillcolor="#ffffff"] ;
374 -> 386 ;
387 [label="gini = 0.0\nsamples = 1\nvalue = [0, 0, 1]\nclass = 1", fillcolor="#8139e5"] ;
386 -> 387 ;
388 [label="gini = 0.0\nsamples = 1\nvalue = [1, 0, 0]\nclass = 2", fillcolor="#e58139"] ;
386 -> 388 ;
389 [label="Platelets <= 384.0\ngini = 0.56\nsamples = 5\nvalue = [3, 1, 1]\nclass = 2", fillcolor="#f2c09c"] ;
353 -> 389 ;
390 [label="Albumin <= 3.755\ngini = 0.5\nsamples = 2\nvalue = [0, 1, 1]\nclass = 0", fillcolor="#ffffff"] ;
389 -> 390 ;
391 [label="gini = 0.0\nsamples = 1\nvalue = [0, 0, 1]\nclass = 1", fillcolor="#8139e5"] ;
390 -> 391 ;
392 [label="gini = 0.0\nsamples = 1\nvalue = [0, 1, 0]\nclass = 0", fillcolor="#39e581"] ;
390 -> 392 ;
393 [label="gini = 0.0\nsamples = 3\nvalue = [3, 0, 0]\nclass = 2", fillcolor="#e58139"] ;
389 -> 393 ;
394 [label="N_Days <= 1226.5\ngini = 0.346\nsamples = 18\nvalue = [14, 0, 4]\nclass = 2", fillcolor="#eca572"] ;
352 -> 394 ;
395 [label="gini = 0.0\nsamples = 2\nvalue = [0, 0, 2]\nclass = 1", fillcolor="#8139e5"] ;
394 -> 395 ;
396 [label="Platelets <= 179.5\ngini = 0.219\nsamples = 16\nvalue = [14, 0, 2]\nclass = 2", fillcolor="#e99355"] ;
394 -> 396 ;
397 [label="gini = 0.0\nsamples = 1\nvalue = [0, 0, 1]\nclass = 1", fillcolor="#8139e5"] ;
396 -> 397 ;
398 [label="Albumin <= 3.0\ngini = 0.124\nsamples = 15\nvalue = [14, 0, 1]\nclass = 2", fillcolor="#e78a47"] ;
396 -> 398 ;
399 [label="gini = 0.0\nsamples = 1\nvalue = [0, 0, 1]\nclass = 1", fillcolor="#8139e5"] ;
398 -> 399 ;
400 [label="gini = 0.0\nsamples = 14\nvalue = [14, 0, 0]\nclass = 2", fillcolor="#e58139"] ;
398 -> 400 ;
401 [label="Age <= 20791.5\ngini = 0.42\nsamples = 10\nvalue = [7, 0, 3]\nclass = 2", fillcolor="#f0b78e"] ;
351 -> 401 ;
402 [label="N_Days <= 1449.5\ngini = 0.219\nsamples = 8\nvalue = [7, 0, 1]\nclass = 2", fillcolor="#e99355"] ;
401 -> 402 ;
403 [label="Platelets <= 260.5\ngini = 0.5\nsamples = 2\nvalue = [1, 0, 1]\nclass = 2", fillcolor="#ffffff"] ;
402 -> 403 ;
404 [label="gini = 0.0\nsamples = 1\nvalue = [0, 0, 1]\nclass = 1", fillcolor="#8139e5"] ;
403 -> 404 ;
405 [label="gini = 0.0\nsamples = 1\nvalue = [1, 0, 0]\nclass = 2", fillcolor="#e58139"] ;
403 -> 405 ;
406 [label="gini = 0.0\nsamples = 6\nvalue = [6, 0, 0]\nclass = 2", fillcolor="#e58139"] ;
402 -> 406 ;
407 [label="gini = 0.0\nsamples = 2\nvalue = [0, 0, 2]\nclass = 1", fillcolor="#8139e5"] ;
401 -> 407 ;
408 [label="gini = 0.0\nsamples = 1\nvalue = [0, 0, 1]\nclass = 1", fillcolor="#8139e5"] ;
350 -> 408 ;
409 [label="Alk_Phos <= 7.528\ngini = 0.361\nsamples = 195\nvalue = [152, 10, 33]\nclass = 2", fillcolor="#eca26e"] ;
349 -> 409 ;
410 [label="Alk_Phos <= 7.124\ngini = 0.3\nsamples = 155\nvalue = [128, 8, 19]\nclass = 2", fillcolor="#ea9a60"] ;
409 -> 410 ;
411 [label="Age <= 18526.5\ngini = 0.428\nsamples = 87\nvalue = [63, 6, 18]\nclass = 2", fillcolor="#eead7e"] ;
410 -> 411 ;
412 [label="Bilirubin <= 0.765\ngini = 0.328\nsamples = 52\nvalue = [42, 6, 4]\nclass = 2", fillcolor="#eb9c64"] ;
411 -> 412 ;
413 [label="Albumin <= 3.86\ngini = 0.201\nsamples = 45\nvalue = [40, 1, 4]\nclass = 2", fillcolor="#e89051"] ;
412 -> 413 ;
414 [label="Cholesterol <= 169.5\ngini = 0.096\nsamples = 40\nvalue = [38, 1, 1]\nclass = 2", fillcolor="#e68743"] ;
413 -> 414 ;
415 [label="gini = 0.0\nsamples = 1\nvalue = [0, 0, 1]\nclass = 1", fillcolor="#8139e5"] ;
414 -> 415 ;
416 [label="Tryglicerides <= 78.5\ngini = 0.05\nsamples = 39\nvalue = [38, 1, 0]\nclass = 2", fillcolor="#e6843e"] ;
414 -> 416 ;
417 [label="Alk_Phos <= 6.684\ngini = 0.375\nsamples = 4\nvalue = [3, 1, 0]\nclass = 2", fillcolor="#eeab7b"] ;
416 -> 417 ;
418 [label="gini = 0.0\nsamples = 1\nvalue = [0, 1, 0]\nclass = 0", fillcolor="#39e581"] ;
417 -> 418 ;
419 [label="gini = 0.0\nsamples = 3\nvalue = [3, 0, 0]\nclass = 2", fillcolor="#e58139"] ;
417 -> 419 ;
420 [label="gini = 0.0\nsamples = 35\nvalue = [35, 0, 0]\nclass = 2", fillcolor="#e58139"] ;
416 -> 420 ;
421 [label="Platelets <= 293.5\ngini = 0.48\nsamples = 5\nvalue = [2, 0, 3]\nclass = 1", fillcolor="#d5bdf6"] ;
413 -> 421 ;
422 [label="gini = 0.0\nsamples = 3\nvalue = [0, 0, 3]\nclass = 1", fillcolor="#8139e5"] ;
421 -> 422 ;
423 [label="gini = 0.0\nsamples = 2\nvalue = [2, 0, 0]\nclass = 2", fillcolor="#e58139"] ;
421 -> 423 ;
424 [label="Copper <= 71.0\ngini = 0.408\nsamples = 7\nvalue = [2, 5, 0]\nclass = 0", fillcolor="#88efb3"] ;
412 -> 424 ;
425 [label="gini = 0.0\nsamples = 2\nvalue = [2, 0, 0]\nclass = 2", fillcolor="#e58139"] ;
424 -> 425 ;
426 [label="gini = 0.0\nsamples = 5\nvalue = [0, 5, 0]\nclass = 0", fillcolor="#39e581"] ;
424 -> 426 ;
427 [label="Age <= 19087.5\ngini = 0.48\nsamples = 35\nvalue = [21, 0, 14]\nclass = 2", fillcolor="#f6d5bd"] ;
411 -> 427 ;
428 [label="gini = 0.0\nsamples = 5\nvalue = [0, 0, 5]\nclass = 1", fillcolor="#8139e5"] ;
427 -> 428 ;
429 [label="Albumin <= 3.63\ngini = 0.42\nsamples = 30\nvalue = [21, 0, 9]\nclass = 2", fillcolor="#f0b78e"] ;
427 -> 429 ;
430 [label="Tryglicerides <= 89.0\ngini = 0.495\nsamples = 20\nvalue = [11, 0, 9]\nclass = 2", fillcolor="#fae8db"] ;
429 -> 430 ;
431 [label="Prothrombin <= 9.95\ngini = 0.219\nsamples = 8\nvalue = [1, 0, 7]\nclass = 1", fillcolor="#9355e9"] ;
430 -> 431 ;
432 [label="Albumin <= 3.415\ngini = 0.444\nsamples = 3\nvalue = [1, 0, 2]\nclass = 1", fillcolor="#c09cf2"] ;
431 -> 432 ;
433 [label="gini = 0.0\nsamples = 2\nvalue = [0, 0, 2]\nclass = 1", fillcolor="#8139e5"] ;
432 -> 433 ;
434 [label="gini = 0.0\nsamples = 1\nvalue = [1, 0, 0]\nclass = 2", fillcolor="#e58139"] ;
432 -> 434 ;
435 [label="gini = 0.0\nsamples = 5\nvalue = [0, 0, 5]\nclass = 1", fillcolor="#8139e5"] ;
431 -> 435 ;
436 [label="N_Days <= 2550.5\ngini = 0.278\nsamples = 12\nvalue = [10, 0, 2]\nclass = 2", fillcolor="#ea9a61"] ;
430 -> 436 ;
437 [label="gini = 0.0\nsamples = 9\nvalue = [9, 0, 0]\nclass = 2", fillcolor="#e58139"] ;
436 -> 437 ;
438 [label="Copper <= 65.0\ngini = 0.444\nsamples = 3\nvalue = [1, 0, 2]\nclass = 1", fillcolor="#c09cf2"] ;
436 -> 438 ;
439 [label="gini = 0.0\nsamples = 2\nvalue = [0, 0, 2]\nclass = 1", fillcolor="#8139e5"] ;
438 -> 439 ;
440 [label="gini = 0.0\nsamples = 1\nvalue = [1, 0, 0]\nclass = 2", fillcolor="#e58139"] ;
438 -> 440 ;
441 [label="gini = 0.0\nsamples = 10\nvalue = [10, 0, 0]\nclass = 2", fillcolor="#e58139"] ;
429 -> 441 ;
442 [label="Albumin <= 4.11\ngini = 0.085\nsamples = 68\nvalue = [65, 2, 1]\nclass = 2", fillcolor="#e68742"] ;
410 -> 442 ;
443 [label="Copper <= 99.0\ngini = 0.031\nsamples = 63\nvalue = [62, 1, 0]\nclass = 2", fillcolor="#e5833c"] ;
442 -> 443 ;
444 [label="gini = 0.0\nsamples = 57\nvalue = [57, 0, 0]\nclass = 2", fillcolor="#e58139"] ;
443 -> 444 ;
445 [label="Spiders <= 0.5\ngini = 0.278\nsamples = 6\nvalue = [5, 1, 0]\nclass = 2", fillcolor="#ea9a61"] ;
443 -> 445 ;
446 [label="gini = 0.0\nsamples = 5\nvalue = [5, 0, 0]\nclass = 2", fillcolor="#e58139"] ;
445 -> 446 ;
447 [label="gini = 0.0\nsamples = 1\nvalue = [0, 1, 0]\nclass = 0", fillcolor="#39e581"] ;
445 -> 447 ;
448 [label="Cholesterol <= 278.0\ngini = 0.56\nsamples = 5\nvalue = [3, 1, 1]\nclass = 2", fillcolor="#f2c09c"] ;
442 -> 448 ;
449 [label="Tryglicerides <= 114.5\ngini = 0.5\nsamples = 2\nvalue = [0, 1, 1]\nclass = 0", fillcolor="#ffffff"] ;
448 -> 449 ;
450 [label="gini = 0.0\nsamples = 1\nvalue = [0, 0, 1]\nclass = 1", fillcolor="#8139e5"] ;
449 -> 450 ;
451 [label="gini = 0.0\nsamples = 1\nvalue = [0, 1, 0]\nclass = 0", fillcolor="#39e581"] ;
449 -> 451 ;
452 [label="gini = 0.0\nsamples = 3\nvalue = [3, 0, 0]\nclass = 2", fillcolor="#e58139"] ;
448 -> 452 ;
453 [label="Age <= 19581.0\ngini = 0.515\nsamples = 40\nvalue = [24, 2, 14]\nclass = 2", fillcolor="#f5cfb3"] ;
409 -> 453 ;
454 [label="Platelets <= 319.5\ngini = 0.565\nsamples = 27\nvalue = [12, 2, 13]\nclass = 1", fillcolor="#f7f2fd"] ;
453 -> 454 ;
455 [label="Platelets <= 207.0\ngini = 0.553\nsamples = 21\nvalue = [12, 2, 7]\nclass = 2", fillcolor="#f6d2b8"] ;
454 -> 455 ;
456 [label="gini = 0.0\nsamples = 4\nvalue = [0, 0, 4]\nclass = 1", fillcolor="#8139e5"] ;
455 -> 456 ;
457 [label="Alk_Phos <= 8.916\ngini = 0.457\nsamples = 17\nvalue = [12, 2, 3]\nclass = 2", fillcolor="#eeae80"] ;
455 -> 457 ;
458 [label="Tryglicerides <= 60.0\ngini = 0.255\nsamples = 14\nvalue = [12, 1, 1]\nclass = 2", fillcolor="#e99457"] ;
457 -> 458 ;
459 [label="gini = 0.0\nsamples = 1\nvalue = [0, 1, 0]\nclass = 0", fillcolor="#39e581"] ;
458 -> 459 ;
460 [label="Alk_Phos <= 7.569\ngini = 0.142\nsamples = 13\nvalue = [12, 0, 1]\nclass = 2", fillcolor="#e78c49"] ;
458 -> 460 ;
461 [label="gini = 0.0\nsamples = 1\nvalue = [0, 0, 1]\nclass = 1", fillcolor="#8139e5"] ;
460 -> 461 ;
462 [label="gini = 0.0\nsamples = 12\nvalue = [12, 0, 0]\nclass = 2", fillcolor="#e58139"] ;
460 -> 462 ;
463 [label="N_Days <= 1849.0\ngini = 0.444\nsamples = 3\nvalue = [0, 1, 2]\nclass = 1", fillcolor="#c09cf2"] ;
457 -> 463 ;
464 [label="gini = 0.0\nsamples = 1\nvalue = [0, 1, 0]\nclass = 0", fillcolor="#39e581"] ;
463 -> 464 ;
465 [label="gini = 0.0\nsamples = 2\nvalue = [0, 0, 2]\nclass = 1", fillcolor="#8139e5"] ;
463 -> 465 ;
466 [label="gini = 0.0\nsamples = 6\nvalue = [0, 0, 6]\nclass = 1", fillcolor="#8139e5"] ;
454 -> 466 ;
467 [label="Bilirubin <= 0.529\ngini = 0.142\nsamples = 13\nvalue = [12, 0, 1]\nclass = 2", fillcolor="#e78c49"] ;
453 -> 467 ;
468 [label="gini = 0.0\nsamples = 1\nvalue = [0, 0, 1]\nclass = 1", fillcolor="#8139e5"] ;
467 -> 468 ;
469 [label="gini = 0.0\nsamples = 12\nvalue = [12, 0, 0]\nclass = 2", fillcolor="#e58139"] ;
467 -> 469 ;
470 [label="Age <= 24411.0\ngini = 0.376\nsamples = 255\nvalue = [194, 7, 54]\nclass = 2", fillcolor="#eda775"] ;
72 -> 470 ;
471 [label="Copper <= 193.0\ngini = 0.356\nsamples = 248\nvalue = [193, 7, 48]\nclass = 2", fillcolor="#eca46f"] ;
470 -> 471 ;
472 [label="N_Days <= 1706.0\ngini = 0.341\nsamples = 244\nvalue = [193, 7, 44]\nclass = 2", fillcolor="#eca16b"] ;
471 -> 472 ;
473 [label="Tryglicerides <= 81.5\ngini = 0.5\nsamples = 59\nvalue = [37, 3, 19]\nclass = 2", fillcolor="#f3c6a6"] ;
472 -> 473 ;
474 [label="Albumin <= 3.985\ngini = 0.188\nsamples = 19\nvalue = [17, 0, 2]\nclass = 2", fillcolor="#e89050"] ;
473 -> 474 ;
475 [label="Prothrombin <= 12.4\ngini = 0.105\nsamples = 18\nvalue = [17, 0, 1]\nclass = 2", fillcolor="#e78845"] ;
474 -> 475 ;
476 [label="gini = 0.0\nsamples = 17\nvalue = [17, 0, 0]\nclass = 2", fillcolor="#e58139"] ;
475 -> 476 ;
477 [label="gini = 0.0\nsamples = 1\nvalue = [0, 0, 1]\nclass = 1", fillcolor="#8139e5"] ;
475 -> 477 ;
478 [label="gini = 0.0\nsamples = 1\nvalue = [0, 0, 1]\nclass = 1", fillcolor="#8139e5"] ;
474 -> 478 ;
479 [label="Albumin <= 3.86\ngini = 0.564\nsamples = 40\nvalue = [20, 3, 17]\nclass = 2", fillcolor="#fcefe5"] ;
473 -> 479 ;
480 [label="Tryglicerides <= 122.0\ngini = 0.571\nsamples = 33\nvalue = [13, 3, 17]\nclass = 1", fillcolor="#e6d7fa"] ;
479 -> 480 ;
481 [label="SGOT <= 180.25\ngini = 0.445\nsamples = 20\nvalue = [5, 1, 14]\nclass = 1", fillcolor="#b388ef"] ;
480 -> 481 ;
482 [label="Alk_Phos <= 6.586\ngini = 0.388\nsamples = 19\nvalue = [5, 0, 14]\nclass = 1", fillcolor="#ae80ee"] ;
481 -> 482 ;
483 [label="Alk_Phos <= 6.505\ngini = 0.5\nsamples = 8\nvalue = [4, 0, 4]\nclass = 2", fillcolor="#ffffff"] ;
482 -> 483 ;
484 [label="gini = 0.0\nsamples = 4\nvalue = [0, 0, 4]\nclass = 1", fillcolor="#8139e5"] ;
483 -> 484 ;
485 [label="gini = 0.0\nsamples = 4\nvalue = [4, 0, 0]\nclass = 2", fillcolor="#e58139"] ;
483 -> 485 ;
486 [label="N_Days <= 961.5\ngini = 0.165\nsamples = 11\nvalue = [1, 0, 10]\nclass = 1", fillcolor="#8e4de8"] ;
482 -> 486 ;
487 [label="gini = 0.0\nsamples = 1\nvalue = [1, 0, 0]\nclass = 2", fillcolor="#e58139"] ;
486 -> 487 ;
488 [label="gini = 0.0\nsamples = 10\nvalue = [0, 0, 10]\nclass = 1", fillcolor="#8139e5"] ;
486 -> 488 ;
489 [label="gini = 0.0\nsamples = 1\nvalue = [0, 1, 0]\nclass = 0", fillcolor="#39e581"] ;
481 -> 489 ;
490 [label="Copper <= 64.5\ngini = 0.544\nsamples = 13\nvalue = [8, 2, 3]\nclass = 2", fillcolor="#f2c09c"] ;
480 -> 490 ;
491 [label="gini = 0.0\nsamples = 5\nvalue = [5, 0, 0]\nclass = 2", fillcolor="#e58139"] ;
490 -> 491 ;
492 [label="Alk_Phos <= 7.188\ngini = 0.656\nsamples = 8\nvalue = [3, 2, 3]\nclass = 2", fillcolor="#ffffff"] ;
490 -> 492 ;
493 [label="Cholesterol <= 551.0\ngini = 0.375\nsamples = 4\nvalue = [3, 0, 1]\nclass = 2", fillcolor="#eeab7b"] ;
492 -> 493 ;
494 [label="gini = 0.0\nsamples = 3\nvalue = [3, 0, 0]\nclass = 2", fillcolor="#e58139"] ;
493 -> 494 ;
495 [label="gini = 0.0\nsamples = 1\nvalue = [0, 0, 1]\nclass = 1", fillcolor="#8139e5"] ;
493 -> 495 ;
496 [label="Hepatomegaly <= 0.5\ngini = 0.5\nsamples = 4\nvalue = [0, 2, 2]\nclass = 0", fillcolor="#ffffff"] ;
492 -> 496 ;
497 [label="gini = 0.0\nsamples = 2\nvalue = [0, 2, 0]\nclass = 0", fillcolor="#39e581"] ;
496 -> 497 ;
498 [label="gini = 0.0\nsamples = 2\nvalue = [0, 0, 2]\nclass = 1", fillcolor="#8139e5"] ;
496 -> 498 ;
499 [label="gini = 0.0\nsamples = 7\nvalue = [7, 0, 0]\nclass = 2", fillcolor="#e58139"] ;
479 -> 499 ;
500 [label="Bilirubin <= 0.299\ngini = 0.27\nsamples = 185\nvalue = [156, 4, 25]\nclass = 2", fillcolor="#ea985d"] ;
472 -> 500 ;
501 [label="SGOT <= 68.825\ngini = 0.375\nsamples = 4\nvalue = [1, 0, 3]\nclass = 1", fillcolor="#ab7bee"] ;
500 -> 501 ;
502 [label="gini = 0.0\nsamples = 3\nvalue = [0, 0, 3]\nclass = 1", fillcolor="#8139e5"] ;
501 -> 502 ;
503 [label="gini = 0.0\nsamples = 1\nvalue = [1, 0, 0]\nclass = 2", fillcolor="#e58139"] ;
501 -> 503 ;
504 [label="Cholesterol <= 586.5\ngini = 0.251\nsamples = 181\nvalue = [155, 4, 22]\nclass = 2", fillcolor="#e99659"] ;
500 -> 504 ;
505 [label="Albumin <= 2.745\ngini = 0.236\nsamples = 179\nvalue = [155, 3, 21]\nclass = 2", fillcolor="#e99457"] ;
504 -> 505 ;
506 [label="gini = 0.0\nsamples = 1\nvalue = [0, 0, 1]\nclass = 1", fillcolor="#8139e5"] ;
505 -> 506 ;
507 [label="Bilirubin <= 0.559\ngini = 0.229\nsamples = 178\nvalue = [155, 3, 20]\nclass = 2", fillcolor="#e99356"] ;
505 -> 507 ;
508 [label="Age <= 22994.0\ngini = 0.143\nsamples = 104\nvalue = [96, 1, 7]\nclass = 2", fillcolor="#e78b49"] ;
507 -> 508 ;
509 [label="Albumin <= 2.995\ngini = 0.115\nsamples = 99\nvalue = [93, 1, 5]\nclass = 2", fillcolor="#e78946"] ;
508 -> 509 ;
510 [label="Tryglicerides <= 73.5\ngini = 0.5\nsamples = 2\nvalue = [1, 1, 0]\nclass = 2", fillcolor="#ffffff"] ;
509 -> 510 ;
511 [label="gini = 0.0\nsamples = 1\nvalue = [1, 0, 0]\nclass = 2", fillcolor="#e58139"] ;
510 -> 511 ;
512 [label="gini = 0.0\nsamples = 1\nvalue = [0, 1, 0]\nclass = 0", fillcolor="#39e581"] ;
510 -> 512 ;
513 [label="Cholesterol <= 380.0\ngini = 0.098\nsamples = 97\nvalue = [92, 0, 5]\nclass = 2", fillcolor="#e68844"] ;
509 -> 513 ;
514 [label="Sex <= 0.5\ngini = 0.064\nsamples = 90\nvalue = [87, 0, 3]\nclass = 2", fillcolor="#e68540"] ;
513 -> 514 ;
515 [label="Tryglicerides <= 50.5\ngini = 0.044\nsamples = 88\nvalue = [86, 0, 2]\nclass = 2", fillcolor="#e6843e"] ;
514 -> 515 ;
516 [label="SGOT <= 50.8\ngini = 0.32\nsamples = 5\nvalue = [4, 0, 1]\nclass = 2", fillcolor="#eca06a"] ;
515 -> 516 ;
517 [label="gini = 0.0\nsamples = 1\nvalue = [0, 0, 1]\nclass = 1", fillcolor="#8139e5"] ;
516 -> 517 ;
518 [label="gini = 0.0\nsamples = 4\nvalue = [4, 0, 0]\nclass = 2", fillcolor="#e58139"] ;
516 -> 518 ;
519 [label="N_Days <= 2079.0\ngini = 0.024\nsamples = 83\nvalue = [82, 0, 1]\nclass = 2", fillcolor="#e5833b"] ;
515 -> 519 ;
520 [label="Platelets <= 347.0\ngini = 0.198\nsamples = 9\nvalue = [8, 0, 1]\nclass = 2", fillcolor="#e89152"] ;
519 -> 520 ;
521 [label="gini = 0.0\nsamples = 8\nvalue = [8, 0, 0]\nclass = 2", fillcolor="#e58139"] ;
520 -> 521 ;
522 [label="gini = 0.0\nsamples = 1\nvalue = [0, 0, 1]\nclass = 1", fillcolor="#8139e5"] ;
520 -> 522 ;
523 [label="gini = 0.0\nsamples = 74\nvalue = [74, 0, 0]\nclass = 2", fillcolor="#e58139"] ;
519 -> 523 ;
524 [label="Stage <= 2.5\ngini = 0.5\nsamples = 2\nvalue = [1, 0, 1]\nclass = 2", fillcolor="#ffffff"] ;
514 -> 524 ;
525 [label="gini = 0.0\nsamples = 1\nvalue = [1, 0, 0]\nclass = 2", fillcolor="#e58139"] ;
524 -> 525 ;
526 [label="gini = 0.0\nsamples = 1\nvalue = [0, 0, 1]\nclass = 1", fillcolor="#8139e5"] ;
524 -> 526 ;
527 [label="Cholesterol <= 402.0\ngini = 0.408\nsamples = 7\nvalue = [5, 0, 2]\nclass = 2", fillcolor="#efb388"] ;
513 -> 527 ;
528 [label="Bilirubin <= 0.438\ngini = 0.444\nsamples = 3\nvalue = [1, 0, 2]\nclass = 1", fillcolor="#c09cf2"] ;
527 -> 528 ;
529 [label="gini = 0.0\nsamples = 1\nvalue = [1, 0, 0]\nclass = 2", fillcolor="#e58139"] ;
528 -> 529 ;
530 [label="gini = 0.0\nsamples = 2\nvalue = [0, 0, 2]\nclass = 1", fillcolor="#8139e5"] ;
528 -> 530 ;
531 [label="gini = 0.0\nsamples = 4\nvalue = [4, 0, 0]\nclass = 2", fillcolor="#e58139"] ;
527 -> 531 ;
532 [label="Platelets <= 280.0\ngini = 0.48\nsamples = 5\nvalue = [3, 0, 2]\nclass = 2", fillcolor="#f6d5bd"] ;
508 -> 532 ;
533 [label="gini = 0.0\nsamples = 3\nvalue = [3, 0, 0]\nclass = 2", fillcolor="#e58139"] ;
532 -> 533 ;
534 [label="gini = 0.0\nsamples = 2\nvalue = [0, 0, 2]\nclass = 1", fillcolor="#8139e5"] ;
532 -> 534 ;
535 [label="N_Days <= 2361.0\ngini = 0.333\nsamples = 74\nvalue = [59, 2, 13]\nclass = 2", fillcolor="#eba06a"] ;
507 -> 535 ;
536 [label="gini = 0.0\nsamples = 18\nvalue = [18, 0, 0]\nclass = 2", fillcolor="#e58139"] ;
535 -> 536 ;
537 [label="N_Days <= 2414.5\ngini = 0.409\nsamples = 56\nvalue = [41, 2, 13]\nclass = 2", fillcolor="#eead7e"] ;
535 -> 537 ;
538 [label="gini = 0.0\nsamples = 2\nvalue = [0, 0, 2]\nclass = 1", fillcolor="#8139e5"] ;
537 -> 538 ;
539 [label="Alk_Phos <= 6.45\ngini = 0.381\nsamples = 54\nvalue = [41, 2, 11]\nclass = 2", fillcolor="#eda775"] ;
537 -> 539 ;
540 [label="Alk_Phos <= 6.189\ngini = 0.444\nsamples = 3\nvalue = [1, 0, 2]\nclass = 1", fillcolor="#c09cf2"] ;
539 -> 540 ;
541 [label="gini = 0.0\nsamples = 1\nvalue = [1, 0, 0]\nclass = 2", fillcolor="#e58139"] ;
540 -> 541 ;
542 [label="gini = 0.0\nsamples = 2\nvalue = [0, 0, 2]\nclass = 1", fillcolor="#8139e5"] ;
540 -> 542 ;
543 [label="Age <= 12628.0\ngini = 0.352\nsamples = 51\nvalue = [40, 2, 9]\nclass = 2", fillcolor="#eca26d"] ;
539 -> 543 ;
544 [label="gini = 0.0\nsamples = 1\nvalue = [0, 0, 1]\nclass = 1", fillcolor="#8139e5"] ;
543 -> 544 ;
545 [label="Alk_Phos <= 6.579\ngini = 0.333\nsamples = 50\nvalue = [40, 2, 8]\nclass = 2", fillcolor="#eb9f68"] ;
543 -> 545 ;
546 [label="gini = 0.0\nsamples = 12\nvalue = [12, 0, 0]\nclass = 2", fillcolor="#e58139"] ;
545 -> 546 ;
547 [label="Alk_Phos <= 6.833\ngini = 0.41\nsamples = 38\nvalue = [28, 2, 8]\nclass = 2", fillcolor="#eeab7b"] ;
545 -> 547 ;
548 [label="Copper <= 31.5\ngini = 0.49\nsamples = 7\nvalue = [3, 0, 4]\nclass = 1", fillcolor="#e0cef8"] ;
547 -> 548 ;
549 [label="gini = 0.0\nsamples = 3\nvalue = [0, 0, 3]\nclass = 1", fillcolor="#8139e5"] ;
548 -> 549 ;
550 [label="Drug <= 0.5\ngini = 0.375\nsamples = 4\nvalue = [3, 0, 1]\nclass = 2", fillcolor="#eeab7b"] ;
548 -> 550 ;
551 [label="gini = 0.0\nsamples = 1\nvalue = [0, 0, 1]\nclass = 1", fillcolor="#8139e5"] ;
550 -> 551 ;
552 [label="gini = 0.0\nsamples = 3\nvalue = [3, 0, 0]\nclass = 2", fillcolor="#e58139"] ;
550 -> 552 ;
553 [label="N_Days <= 2485.5\ngini = 0.329\nsamples = 31\nvalue = [25, 2, 4]\nclass = 2", fillcolor="#eb9d65"] ;
547 -> 553 ;
554 [label="Copper <= 42.5\ngini = 0.48\nsamples = 5\nvalue = [3, 2, 0]\nclass = 2", fillcolor="#f6d5bd"] ;
553 -> 554 ;
555 [label="gini = 0.0\nsamples = 3\nvalue = [3, 0, 0]\nclass = 2", fillcolor="#e58139"] ;
554 -> 555 ;
556 [label="gini = 0.0\nsamples = 2\nvalue = [0, 2, 0]\nclass = 0", fillcolor="#39e581"] ;
554 -> 556 ;
557 [label="Stage <= 2.5\ngini = 0.26\nsamples = 26\nvalue = [22, 0, 4]\nclass = 2", fillcolor="#ea985d"] ;
553 -> 557 ;
558 [label="gini = 0.0\nsamples = 13\nvalue = [13, 0, 0]\nclass = 2", fillcolor="#e58139"] ;
557 -> 558 ;
559 [label="Cholesterol <= 350.0\ngini = 0.426\nsamples = 13\nvalue = [9, 0, 4]\nclass = 2", fillcolor="#f1b991"] ;
557 -> 559 ;
560 [label="Platelets <= 291.0\ngini = 0.49\nsamples = 7\nvalue = [3, 0, 4]\nclass = 1", fillcolor="#e0cef8"] ;
559 -> 560 ;
561 [label="gini = 0.0\nsamples = 3\nvalue = [0, 0, 3]\nclass = 1", fillcolor="#8139e5"] ;
560 -> 561 ;
562 [label="Copper <= 62.5\ngini = 0.375\nsamples = 4\nvalue = [3, 0, 1]\nclass = 2", fillcolor="#eeab7b"] ;
560 -> 562 ;
563 [label="gini = 0.0\nsamples = 3\nvalue = [3, 0, 0]\nclass = 2", fillcolor="#e58139"] ;
562 -> 563 ;
564 [label="gini = 0.0\nsamples = 1\nvalue = [0, 0, 1]\nclass = 1", fillcolor="#8139e5"] ;
562 -> 564 ;
565 [label="gini = 0.0\nsamples = 6\nvalue = [6, 0, 0]\nclass = 2", fillcolor="#e58139"] ;
559 -> 565 ;
566 [label="SGOT <= 76.04\ngini = 0.5\nsamples = 2\nvalue = [0, 1, 1]\nclass = 0", fillcolor="#ffffff"] ;
504 -> 566 ;
567 [label="gini = 0.0\nsamples = 1\nvalue = [0, 0, 1]\nclass = 1", fillcolor="#8139e5"] ;
566 -> 567 ;
568 [label="gini = 0.0\nsamples = 1\nvalue = [0, 1, 0]\nclass = 0", fillcolor="#39e581"] ;
566 -> 568 ;
569 [label="gini = 0.0\nsamples = 4\nvalue = [0, 0, 4]\nclass = 1", fillcolor="#8139e5"] ;
471 -> 569 ;
570 [label="Alk_Phos <= 6.84\ngini = 0.245\nsamples = 7\nvalue = [1, 0, 6]\nclass = 1", fillcolor="#965ae9"] ;
470 -> 570 ;
571 [label="gini = 0.0\nsamples = 1\nvalue = [1, 0, 0]\nclass = 2", fillcolor="#e58139"] ;
570 -> 571 ;
572 [label="gini = 0.0\nsamples = 6\nvalue = [0, 0, 6]\nclass = 1", fillcolor="#8139e5"] ;
570 -> 572 ;
573 [label="Copper <= 118.5\ngini = 0.401\nsamples = 669\nvalue = [489, 10, 170]\nclass = 2", fillcolor="#eeae80"] ;
71 -> 573 ;
574 [label="Albumin <= 2.58\ngini = 0.371\nsamples = 609\nvalue = [463, 9, 137]\nclass = 2", fillcolor="#eda876"] ;
573 -> 574 ;
575 [label="Cholesterol <= 332.0\ngini = 0.165\nsamples = 11\nvalue = [1, 0, 10]\nclass = 1", fillcolor="#8e4de8"] ;
574 -> 575 ;
576 [label="gini = 0.0\nsamples = 10\nvalue = [0, 0, 10]\nclass = 1", fillcolor="#8139e5"] ;
575 -> 576 ;
577 [label="gini = 0.0\nsamples = 1\nvalue = [1, 0, 0]\nclass = 2", fillcolor="#e58139"] ;
575 -> 577 ;
578 [label="Cholesterol <= 429.0\ngini = 0.358\nsamples = 598\nvalue = [462, 9, 127]\nclass = 2", fillcolor="#eda572"] ;
574 -> 578 ;
579 [label="Platelets <= 229.5\ngini = 0.324\nsamples = 545\nvalue = [436, 5, 104]\nclass = 2", fillcolor="#eba06a"] ;
578 -> 579 ;
580 [label="N_Days <= 2446.0\ngini = 0.413\nsamples = 212\nvalue = [152, 3, 57]\nclass = 2", fillcolor="#efb286"] ;
579 -> 580 ;
581 [label="Ascites <= 0.5\ngini = 0.342\nsamples = 128\nvalue = [101, 3, 24]\nclass = 2", fillcolor="#eca26c"] ;
580 -> 581 ;
582 [label="N_Days <= 999.5\ngini = 0.326\nsamples = 126\nvalue = [101, 3, 22]\nclass = 2", fillcolor="#eb9f69"] ;
581 -> 582 ;
583 [label="Bilirubin <= 0.668\ngini = 0.444\nsamples = 3\nvalue = [1, 0, 2]\nclass = 1", fillcolor="#c09cf2"] ;
582 -> 583 ;
584 [label="gini = 0.0\nsamples = 2\nvalue = [0, 0, 2]\nclass = 1", fillcolor="#8139e5"] ;
583 -> 584 ;
585 [label="gini = 0.0\nsamples = 1\nvalue = [1, 0, 0]\nclass = 2", fillcolor="#e58139"] ;
583 -> 585 ;
586 [label="Age <= 22916.5\ngini = 0.312\nsamples = 123\nvalue = [100, 3, 20]\nclass = 2", fillcolor="#eb9d65"] ;
582 -> 586 ;
587 [label="Bilirubin <= 0.5\ngini = 0.285\nsamples = 114\nvalue = [95, 3, 16]\nclass = 2", fillcolor="#ea995f"] ;
586 -> 587 ;
588 [label="Age <= 12208.0\ngini = 0.064\nsamples = 30\nvalue = [29, 0, 1]\nclass = 2", fillcolor="#e68540"] ;
587 -> 588 ;
589 [label="gini = 0.0\nsamples = 1\nvalue = [0, 0, 1]\nclass = 1", fillcolor="#8139e5"] ;
588 -> 589 ;
590 [label="gini = 0.0\nsamples = 29\nvalue = [29, 0, 0]\nclass = 2", fillcolor="#e58139"] ;
588 -> 590 ;
591 [label="Albumin <= 3.825\ngini = 0.349\nsamples = 84\nvalue = [66, 3, 15]\nclass = 2", fillcolor="#eca26d"] ;
587 -> 591 ;
592 [label="Tryglicerides <= 89.0\ngini = 0.302\nsamples = 78\nvalue = [64, 2, 12]\nclass = 2", fillcolor="#eb9c63"] ;
591 -> 592 ;
593 [label="Prothrombin <= 11.45\ngini = 0.439\nsamples = 33\nvalue = [23, 1, 9]\nclass = 2", fillcolor="#f0b68c"] ;
592 -> 593 ;
594 [label="Cholesterol <= 224.5\ngini = 0.358\nsamples = 30\nvalue = [23, 0, 7]\nclass = 2", fillcolor="#eda775"] ;
593 -> 594 ;
595 [label="Cholesterol <= 210.0\ngini = 0.48\nsamples = 5\nvalue = [2, 0, 3]\nclass = 1", fillcolor="#d5bdf6"] ;
594 -> 595 ;
596 [label="gini = 0.0\nsamples = 2\nvalue = [2, 0, 0]\nclass = 2", fillcolor="#e58139"] ;
595 -> 596 ;
597 [label="gini = 0.0\nsamples = 3\nvalue = [0, 0, 3]\nclass = 1", fillcolor="#8139e5"] ;
595 -> 597 ;
598 [label="Platelets <= 227.0\ngini = 0.269\nsamples = 25\nvalue = [21, 0, 4]\nclass = 2", fillcolor="#ea995f"] ;
594 -> 598 ;
599 [label="Platelets <= 153.5\ngini = 0.172\nsamples = 21\nvalue = [19, 0, 2]\nclass = 2", fillcolor="#e88e4e"] ;
598 -> 599 ;
600 [label="Age <= 15900.5\ngini = 0.48\nsamples = 5\nvalue = [3, 0, 2]\nclass = 2", fillcolor="#f6d5bd"] ;
599 -> 600 ;
601 [label="gini = 0.0\nsamples = 2\nvalue = [0, 0, 2]\nclass = 1", fillcolor="#8139e5"] ;
600 -> 601 ;
602 [label="gini = 0.0\nsamples = 3\nvalue = [3, 0, 0]\nclass = 2", fillcolor="#e58139"] ;
600 -> 602 ;
603 [label="gini = 0.0\nsamples = 16\nvalue = [16, 0, 0]\nclass = 2", fillcolor="#e58139"] ;
599 -> 603 ;
604 [label="Age <= 18639.0\ngini = 0.5\nsamples = 4\nvalue = [2, 0, 2]\nclass = 2", fillcolor="#ffffff"] ;
598 -> 604 ;
605 [label="gini = 0.0\nsamples = 2\nvalue = [2, 0, 0]\nclass = 2", fillcolor="#e58139"] ;
604 -> 605 ;
606 [label="gini = 0.0\nsamples = 2\nvalue = [0, 0, 2]\nclass = 1", fillcolor="#8139e5"] ;
604 -> 606 ;
607 [label="Prothrombin <= 11.55\ngini = 0.444\nsamples = 3\nvalue = [0, 1, 2]\nclass = 1", fillcolor="#c09cf2"] ;
593 -> 607 ;
608 [label="gini = 0.0\nsamples = 1\nvalue = [0, 1, 0]\nclass = 0", fillcolor="#39e581"] ;
607 -> 608 ;
609 [label="gini = 0.0\nsamples = 2\nvalue = [0, 0, 2]\nclass = 1", fillcolor="#8139e5"] ;
607 -> 609 ;
610 [label="Alk_Phos <= 8.945\ngini = 0.165\nsamples = 45\nvalue = [41, 1, 3]\nclass = 2", fillcolor="#e78d4c"] ;
592 -> 610 ;
611 [label="Age <= 12434.0\ngini = 0.127\nsamples = 44\nvalue = [41, 0, 3]\nclass = 2", fillcolor="#e78a47"] ;
610 -> 611 ;
612 [label="Cholesterol <= 280.0\ngini = 0.5\nsamples = 2\nvalue = [1, 0, 1]\nclass = 2", fillcolor="#ffffff"] ;
611 -> 612 ;
613 [label="gini = 0.0\nsamples = 1\nvalue = [1, 0, 0]\nclass = 2", fillcolor="#e58139"] ;
612 -> 613 ;
614 [label="gini = 0.0\nsamples = 1\nvalue = [0, 0, 1]\nclass = 1", fillcolor="#8139e5"] ;
612 -> 614 ;
615 [label="SGOT <= 134.075\ngini = 0.091\nsamples = 42\nvalue = [40, 0, 2]\nclass = 2", fillcolor="#e68743"] ;
611 -> 615 ;
616 [label="gini = 0.0\nsamples = 34\nvalue = [34, 0, 0]\nclass = 2", fillcolor="#e58139"] ;
615 -> 616 ;
617 [label="Albumin <= 3.41\ngini = 0.375\nsamples = 8\nvalue = [6, 0, 2]\nclass = 2", fillcolor="#eeab7b"] ;
615 -> 617 ;
618 [label="Age <= 22347.0\ngini = 0.245\nsamples = 7\nvalue = [6, 0, 1]\nclass = 2", fillcolor="#e9965a"] ;
617 -> 618 ;
619 [label="gini = 0.0\nsamples = 6\nvalue = [6, 0, 0]\nclass = 2", fillcolor="#e58139"] ;
618 -> 619 ;
620 [label="gini = 0.0\nsamples = 1\nvalue = [0, 0, 1]\nclass = 1", fillcolor="#8139e5"] ;
618 -> 620 ;
621 [label="gini = 0.0\nsamples = 1\nvalue = [0, 0, 1]\nclass = 1", fillcolor="#8139e5"] ;
617 -> 621 ;
622 [label="gini = 0.0\nsamples = 1\nvalue = [0, 1, 0]\nclass = 0", fillcolor="#39e581"] ;
610 -> 622 ;
623 [label="SGOT <= 77.84\ngini = 0.611\nsamples = 6\nvalue = [2, 1, 3]\nclass = 1", fillcolor="#e0cef8"] ;
591 -> 623 ;
624 [label="SGOT <= 60.45\ngini = 0.375\nsamples = 4\nvalue = [0, 1, 3]\nclass = 1", fillcolor="#ab7bee"] ;
623 -> 624 ;
625 [label="gini = 0.0\nsamples = 1\nvalue = [0, 1, 0]\nclass = 0", fillcolor="#39e581"] ;
624 -> 625 ;
626 [label="gini = 0.0\nsamples = 3\nvalue = [0, 0, 3]\nclass = 1", fillcolor="#8139e5"] ;
624 -> 626 ;
627 [label="gini = 0.0\nsamples = 2\nvalue = [2, 0, 0]\nclass = 2", fillcolor="#e58139"] ;
623 -> 627 ;
628 [label="Tryglicerides <= 102.5\ngini = 0.494\nsamples = 9\nvalue = [5, 0, 4]\nclass = 2", fillcolor="#fae6d7"] ;
586 -> 628 ;
629 [label="Age <= 27935.0\ngini = 0.32\nsamples = 5\nvalue = [1, 0, 4]\nclass = 1", fillcolor="#a06aec"] ;
628 -> 629 ;
630 [label="gini = 0.0\nsamples = 4\nvalue = [0, 0, 4]\nclass = 1", fillcolor="#8139e5"] ;
629 -> 630 ;
631 [label="gini = 0.0\nsamples = 1\nvalue = [1, 0, 0]\nclass = 2", fillcolor="#e58139"] ;
629 -> 631 ;
632 [label="gini = 0.0\nsamples = 4\nvalue = [4, 0, 0]\nclass = 2", fillcolor="#e58139"] ;
628 -> 632 ;
633 [label="gini = 0.0\nsamples = 2\nvalue = [0, 0, 2]\nclass = 1", fillcolor="#8139e5"] ;
581 -> 633 ;
634 [label="SGOT <= 72.075\ngini = 0.477\nsamples = 84\nvalue = [51, 0, 33]\nclass = 2", fillcolor="#f6d3b9"] ;
580 -> 634 ;
635 [label="Tryglicerides <= 142.0\ngini = 0.305\nsamples = 32\nvalue = [26, 0, 6]\nclass = 2", fillcolor="#eb9e67"] ;
634 -> 635 ;
636 [label="N_Days <= 2460.0\ngini = 0.231\nsamples = 30\nvalue = [26, 0, 4]\nclass = 2", fillcolor="#e99457"] ;
635 -> 636 ;
637 [label="gini = 0.0\nsamples = 1\nvalue = [0, 0, 1]\nclass = 1", fillcolor="#8139e5"] ;
636 -> 637 ;
638 [label="Albumin <= 3.775\ngini = 0.185\nsamples = 29\nvalue = [26, 0, 3]\nclass = 2", fillcolor="#e89050"] ;
636 -> 638 ;
639 [label="gini = 0.0\nsamples = 20\nvalue = [20, 0, 0]\nclass = 2", fillcolor="#e58139"] ;
638 -> 639 ;
640 [label="Copper <= 65.5\ngini = 0.444\nsamples = 9\nvalue = [6, 0, 3]\nclass = 2", fillcolor="#f2c09c"] ;
638 -> 640 ;
641 [label="Platelets <= 155.0\ngini = 0.245\nsamples = 7\nvalue = [6, 0, 1]\nclass = 2", fillcolor="#e9965a"] ;
640 -> 641 ;
642 [label="Tryglicerides <= 95.0\ngini = 0.5\nsamples = 2\nvalue = [1, 0, 1]\nclass = 2", fillcolor="#ffffff"] ;
641 -> 642 ;
643 [label="gini = 0.0\nsamples = 1\nvalue = [1, 0, 0]\nclass = 2", fillcolor="#e58139"] ;
642 -> 643 ;
644 [label="gini = 0.0\nsamples = 1\nvalue = [0, 0, 1]\nclass = 1", fillcolor="#8139e5"] ;
642 -> 644 ;
645 [label="gini = 0.0\nsamples = 5\nvalue = [5, 0, 0]\nclass = 2", fillcolor="#e58139"] ;
641 -> 645 ;
646 [label="gini = 0.0\nsamples = 2\nvalue = [0, 0, 2]\nclass = 1", fillcolor="#8139e5"] ;
640 -> 646 ;
647 [label="gini = 0.0\nsamples = 2\nvalue = [0, 0, 2]\nclass = 1", fillcolor="#8139e5"] ;
635 -> 647 ;
648 [label="Hepatomegaly <= 0.5\ngini = 0.499\nsamples = 52\nvalue = [25, 0, 27]\nclass = 1", fillcolor="#f6f0fd"] ;
634 -> 648 ;
649 [label="Bilirubin <= 0.765\ngini = 0.198\nsamples = 9\nvalue = [8, 0, 1]\nclass = 2", fillcolor="#e89152"] ;
648 -> 649 ;
650 [label="gini = 0.0\nsamples = 8\nvalue = [8, 0, 0]\nclass = 2", fillcolor="#e58139"] ;
649 -> 650 ;
651 [label="gini = 0.0\nsamples = 1\nvalue = [0, 0, 1]\nclass = 1", fillcolor="#8139e5"] ;
649 -> 651 ;
652 [label="Prothrombin <= 11.15\ngini = 0.478\nsamples = 43\nvalue = [17, 0, 26]\nclass = 1", fillcolor="#d3baf6"] ;
648 -> 652 ;
653 [label="Age <= 16131.5\ngini = 0.422\nsamples = 33\nvalue = [10, 0, 23]\nclass = 1", fillcolor="#b88ff0"] ;
652 -> 653 ;
654 [label="Platelets <= 227.5\ngini = 0.408\nsamples = 7\nvalue = [5, 0, 2]\nclass = 2", fillcolor="#efb388"] ;
653 -> 654 ;
655 [label="gini = 0.0\nsamples = 5\nvalue = [5, 0, 0]\nclass = 2", fillcolor="#e58139"] ;
654 -> 655 ;
656 [label="gini = 0.0\nsamples = 2\nvalue = [0, 0, 2]\nclass = 1", fillcolor="#8139e5"] ;
654 -> 656 ;
657 [label="Tryglicerides <= 144.0\ngini = 0.311\nsamples = 26\nvalue = [5, 0, 21]\nclass = 1", fillcolor="#9f68eb"] ;
653 -> 657 ;
658 [label="Copper <= 12.5\ngini = 0.219\nsamples = 24\nvalue = [3, 0, 21]\nclass = 1", fillcolor="#9355e9"] ;
657 -> 658 ;
659 [label="gini = 0.0\nsamples = 1\nvalue = [1, 0, 0]\nclass = 2", fillcolor="#e58139"] ;
658 -> 659 ;
660 [label="Alk_Phos <= 6.472\ngini = 0.159\nsamples = 23\nvalue = [2, 0, 21]\nclass = 1", fillcolor="#8d4ce7"] ;
658 -> 660 ;
661 [label="gini = 0.0\nsamples = 1\nvalue = [1, 0, 0]\nclass = 2", fillcolor="#e58139"] ;
660 -> 661 ;
662 [label="Alk_Phos <= 6.818\ngini = 0.087\nsamples = 22\nvalue = [1, 0, 21]\nclass = 1", fillcolor="#8742e6"] ;
660 -> 662 ;
663 [label="N_Days <= 2693.5\ngini = 0.444\nsamples = 3\nvalue = [1, 0, 2]\nclass = 1", fillcolor="#c09cf2"] ;
662 -> 663 ;
664 [label="gini = 0.0\nsamples = 1\nvalue = [1, 0, 0]\nclass = 2", fillcolor="#e58139"] ;
663 -> 664 ;
665 [label="gini = 0.0\nsamples = 2\nvalue = [0, 0, 2]\nclass = 1", fillcolor="#8139e5"] ;
663 -> 665 ;
666 [label="gini = 0.0\nsamples = 19\nvalue = [0, 0, 19]\nclass = 1", fillcolor="#8139e5"] ;
662 -> 666 ;
667 [label="gini = 0.0\nsamples = 2\nvalue = [2, 0, 0]\nclass = 2", fillcolor="#e58139"] ;
657 -> 667 ;
668 [label="Prothrombin <= 11.85\ngini = 0.42\nsamples = 10\nvalue = [7, 0, 3]\nclass = 2", fillcolor="#f0b78e"] ;
652 -> 668 ;
669 [label="gini = 0.0\nsamples = 7\nvalue = [7, 0, 0]\nclass = 2", fillcolor="#e58139"] ;
668 -> 669 ;
670 [label="gini = 0.0\nsamples = 3\nvalue = [0, 0, 3]\nclass = 1", fillcolor="#8139e5"] ;
668 -> 670 ;
671 [label="Bilirubin <= 0.299\ngini = 0.253\nsamples = 333\nvalue = [284, 2, 47]\nclass = 2", fillcolor="#e9975b"] ;
579 -> 671 ;
672 [label="Prothrombin <= 9.95\ngini = 0.444\nsamples = 9\nvalue = [3, 0, 6]\nclass = 1", fillcolor="#c09cf2"] ;
671 -> 672 ;
673 [label="gini = 0.0\nsamples = 4\nvalue = [0, 0, 4]\nclass = 1", fillcolor="#8139e5"] ;
672 -> 673 ;
674 [label="N_Days <= 2454.5\ngini = 0.48\nsamples = 5\nvalue = [3, 0, 2]\nclass = 2", fillcolor="#f6d5bd"] ;
672 -> 674 ;
675 [label="gini = 0.0\nsamples = 3\nvalue = [3, 0, 0]\nclass = 2", fillcolor="#e58139"] ;
674 -> 675 ;
676 [label="gini = 0.0\nsamples = 2\nvalue = [0, 0, 2]\nclass = 1", fillcolor="#8139e5"] ;
674 -> 676 ;
677 [label="Cholesterol <= 173.0\ngini = 0.232\nsamples = 324\nvalue = [281, 2, 41]\nclass = 2", fillcolor="#e99457"] ;
671 -> 677 ;
678 [label="SGOT <= 64.325\ngini = 0.469\nsamples = 8\nvalue = [3, 0, 5]\nclass = 1", fillcolor="#cdb0f5"] ;
677 -> 678 ;
679 [label="gini = 0.0\nsamples = 4\nvalue = [0, 0, 4]\nclass = 1", fillcolor="#8139e5"] ;
678 -> 679 ;
680 [label="Platelets <= 440.0\ngini = 0.375\nsamples = 4\nvalue = [3, 0, 1]\nclass = 2", fillcolor="#eeab7b"] ;
678 -> 680 ;
681 [label="gini = 0.0\nsamples = 3\nvalue = [3, 0, 0]\nclass = 2", fillcolor="#e58139"] ;
680 -> 681 ;
682 [label="gini = 0.0\nsamples = 1\nvalue = [0, 0, 1]\nclass = 1", fillcolor="#8139e5"] ;
680 -> 682 ;
683 [label="N_Days <= 3626.5\ngini = 0.213\nsamples = 316\nvalue = [278, 2, 36]\nclass = 2", fillcolor="#e99254"] ;
677 -> 683 ;
684 [label="Prothrombin <= 11.9\ngini = 0.189\nsamples = 295\nvalue = [264, 2, 29]\nclass = 2", fillcolor="#e89050"] ;
683 -> 684 ;
685 [label="N_Days <= 934.5\ngini = 0.176\nsamples = 289\nvalue = [261, 2, 26]\nclass = 2", fillcolor="#e88e4e"] ;
684 -> 685 ;
686 [label="gini = 0.0\nsamples = 1\nvalue = [0, 0, 1]\nclass = 1", fillcolor="#8139e5"] ;
685 -> 686 ;
687 [label="Edema <= 1.5\ngini = 0.171\nsamples = 288\nvalue = [261, 2, 25]\nclass = 2", fillcolor="#e88e4d"] ;
685 -> 687 ;
688 [label="Copper <= 101.5\ngini = 0.166\nsamples = 287\nvalue = [261, 2, 24]\nclass = 2", fillcolor="#e88d4d"] ;
687 -> 688 ;
689 [label="Copper <= 49.5\ngini = 0.149\nsamples = 273\nvalue = [251, 2, 20]\nclass = 2", fillcolor="#e78c4a"] ;
688 -> 689 ;
690 [label="Cholesterol <= 373.5\ngini = 0.219\nsamples = 154\nvalue = [135, 2, 17]\nclass = 2", fillcolor="#e99254"] ;
689 -> 690 ;
691 [label="Tryglicerides <= 129.5\ngini = 0.189\nsamples = 144\nvalue = [129, 2, 13]\nclass = 2", fillcolor="#e88f50"] ;
690 -> 691 ;
692 [label="SGOT <= 127.405\ngini = 0.135\nsamples = 125\nvalue = [116, 1, 8]\nclass = 2", fillcolor="#e78b48"] ;
691 -> 692 ;
693 [label="Alk_Phos <= 8.655\ngini = 0.1\nsamples = 115\nvalue = [109, 1, 5]\nclass = 2", fillcolor="#e68844"] ;
692 -> 693 ;
694 [label="Bilirubin <= 0.668\ngini = 0.071\nsamples = 109\nvalue = [105, 1, 3]\nclass = 2", fillcolor="#e68640"] ;
693 -> 694 ;
695 [label="Prothrombin <= 11.65\ngini = 0.04\nsamples = 97\nvalue = [95, 0, 2]\nclass = 2", fillcolor="#e6843d"] ;
694 -> 695 ;
696 [label="Copper <= 21.0\ngini = 0.022\nsamples = 92\nvalue = [91, 0, 1]\nclass = 2", fillcolor="#e5823b"] ;
695 -> 696 ;
697 [label="Copper <= 19.0\ngini = 0.111\nsamples = 17\nvalue = [16, 0, 1]\nclass = 2", fillcolor="#e78945"] ;
696 -> 697 ;
698 [label="gini = 0.0\nsamples = 15\nvalue = [15, 0, 0]\nclass = 2", fillcolor="#e58139"] ;
697 -> 698 ;
699 [label="N_Days <= 1894.5\ngini = 0.5\nsamples = 2\nvalue = [1, 0, 1]\nclass = 2", fillcolor="#ffffff"] ;
697 -> 699 ;
700 [label="gini = 0.0\nsamples = 1\nvalue = [1, 0, 0]\nclass = 2", fillcolor="#e58139"] ;
699 -> 700 ;
701 [label="gini = 0.0\nsamples = 1\nvalue = [0, 0, 1]\nclass = 1", fillcolor="#8139e5"] ;
699 -> 701 ;
702 [label="gini = 0.0\nsamples = 75\nvalue = [75, 0, 0]\nclass = 2", fillcolor="#e58139"] ;
696 -> 702 ;
703 [label="Tryglicerides <= 101.5\ngini = 0.32\nsamples = 5\nvalue = [4, 0, 1]\nclass = 2", fillcolor="#eca06a"] ;
695 -> 703 ;
704 [label="gini = 0.0\nsamples = 4\nvalue = [4, 0, 0]\nclass = 2", fillcolor="#e58139"] ;
703 -> 704 ;
705 [label="gini = 0.0\nsamples = 1\nvalue = [0, 0, 1]\nclass = 1", fillcolor="#8139e5"] ;
703 -> 705 ;
706 [label="Alk_Phos <= 6.977\ngini = 0.292\nsamples = 12\nvalue = [10, 1, 1]\nclass = 2", fillcolor="#ea985d"] ;
694 -> 706 ;
707 [label="gini = 0.0\nsamples = 9\nvalue = [9, 0, 0]\nclass = 2", fillcolor="#e58139"] ;
706 -> 707 ;
708 [label="Alk_Phos <= 7.189\ngini = 0.667\nsamples = 3\nvalue = [1, 1, 1]\nclass = 2", fillcolor="#ffffff"] ;
706 -> 708 ;
709 [label="gini = 0.0\nsamples = 1\nvalue = [0, 0, 1]\nclass = 1", fillcolor="#8139e5"] ;
708 -> 709 ;
710 [label="Platelets <= 325.0\ngini = 0.5\nsamples = 2\nvalue = [1, 1, 0]\nclass = 2", fillcolor="#ffffff"] ;
708 -> 710 ;
711 [label="gini = 0.0\nsamples = 1\nvalue = [1, 0, 0]\nclass = 2", fillcolor="#e58139"] ;
710 -> 711 ;
712 [label="gini = 0.0\nsamples = 1\nvalue = [0, 1, 0]\nclass = 0", fillcolor="#39e581"] ;
710 -> 712 ;
713 [label="Platelets <= 330.5\ngini = 0.444\nsamples = 6\nvalue = [4, 0, 2]\nclass = 2", fillcolor="#f2c09c"] ;
693 -> 713 ;
714 [label="gini = 0.0\nsamples = 3\nvalue = [3, 0, 0]\nclass = 2", fillcolor="#e58139"] ;
713 -> 714 ;
715 [label="Drug <= 0.5\ngini = 0.444\nsamples = 3\nvalue = [1, 0, 2]\nclass = 1", fillcolor="#c09cf2"] ;
713 -> 715 ;
716 [label="gini = 0.0\nsamples = 1\nvalue = [1, 0, 0]\nclass = 2", fillcolor="#e58139"] ;
715 -> 716 ;
717 [label="gini = 0.0\nsamples = 2\nvalue = [0, 0, 2]\nclass = 1", fillcolor="#8139e5"] ;
715 -> 717 ;
718 [label="Albumin <= 3.635\ngini = 0.42\nsamples = 10\nvalue = [7, 0, 3]\nclass = 2", fillcolor="#f0b78e"] ;
692 -> 718 ;
719 [label="gini = 0.0\nsamples = 5\nvalue = [5, 0, 0]\nclass = 2", fillcolor="#e58139"] ;
718 -> 719 ;
720 [label="Prothrombin <= 10.3\ngini = 0.48\nsamples = 5\nvalue = [2, 0, 3]\nclass = 1", fillcolor="#d5bdf6"] ;
718 -> 720 ;
721 [label="gini = 0.0\nsamples = 2\nvalue = [0, 0, 2]\nclass = 1", fillcolor="#8139e5"] ;
720 -> 721 ;
722 [label="Cholesterol <= 232.5\ngini = 0.444\nsamples = 3\nvalue = [2, 0, 1]\nclass = 2", fillcolor="#f2c09c"] ;
720 -> 722 ;
723 [label="gini = 0.0\nsamples = 1\nvalue = [0, 0, 1]\nclass = 1", fillcolor="#8139e5"] ;
722 -> 723 ;
724 [label="gini = 0.0\nsamples = 2\nvalue = [2, 0, 0]\nclass = 2", fillcolor="#e58139"] ;
722 -> 724 ;
725 [label="Drug <= 0.5\ngini = 0.46\nsamples = 19\nvalue = [13, 1, 5]\nclass = 2", fillcolor="#f0b78e"] ;
691 -> 725 ;
726 [label="Bilirubin <= 0.438\ngini = 0.611\nsamples = 6\nvalue = [2, 1, 3]\nclass = 1", fillcolor="#e0cef8"] ;
725 -> 726 ;
727 [label="Tryglicerides <= 142.0\ngini = 0.444\nsamples = 3\nvalue = [2, 1, 0]\nclass = 2", fillcolor="#f2c09c"] ;
726 -> 727 ;
728 [label="gini = 0.0\nsamples = 2\nvalue = [2, 0, 0]\nclass = 2", fillcolor="#e58139"] ;
727 -> 728 ;
729 [label="gini = 0.0\nsamples = 1\nvalue = [0, 1, 0]\nclass = 0", fillcolor="#39e581"] ;
727 -> 729 ;
730 [label="gini = 0.0\nsamples = 3\nvalue = [0, 0, 3]\nclass = 1", fillcolor="#8139e5"] ;
726 -> 730 ;
731 [label="Age <= 23858.5\ngini = 0.26\nsamples = 13\nvalue = [11, 0, 2]\nclass = 2", fillcolor="#ea985d"] ;
725 -> 731 ;
732 [label="Platelets <= 347.0\ngini = 0.153\nsamples = 12\nvalue = [11, 0, 1]\nclass = 2", fillcolor="#e78c4b"] ;
731 -> 732 ;
733 [label="gini = 0.0\nsamples = 10\nvalue = [10, 0, 0]\nclass = 2", fillcolor="#e58139"] ;
732 -> 733 ;
734 [label="Alk_Phos <= 7.285\ngini = 0.5\nsamples = 2\nvalue = [1, 0, 1]\nclass = 2", fillcolor="#ffffff"] ;
732 -> 734 ;
735 [label="gini = 0.0\nsamples = 1\nvalue = [0, 0, 1]\nclass = 1", fillcolor="#8139e5"] ;
734 -> 735 ;
736 [label="gini = 0.0\nsamples = 1\nvalue = [1, 0, 0]\nclass = 2", fillcolor="#e58139"] ;
734 -> 736 ;
737 [label="gini = 0.0\nsamples = 1\nvalue = [0, 0, 1]\nclass = 1", fillcolor="#8139e5"] ;
731 -> 737 ;
738 [label="Copper <= 40.5\ngini = 0.48\nsamples = 10\nvalue = [6, 0, 4]\nclass = 2", fillcolor="#f6d5bd"] ;
690 -> 738 ;
739 [label="Age <= 19301.5\ngini = 0.375\nsamples = 8\nvalue = [6, 0, 2]\nclass = 2", fillcolor="#eeab7b"] ;
738 -> 739 ;
740 [label="gini = 0.0\nsamples = 5\nvalue = [5, 0, 0]\nclass = 2", fillcolor="#e58139"] ;
739 -> 740 ;
741 [label="Prothrombin <= 10.25\ngini = 0.444\nsamples = 3\nvalue = [1, 0, 2]\nclass = 1", fillcolor="#c09cf2"] ;
739 -> 741 ;
742 [label="gini = 0.0\nsamples = 1\nvalue = [1, 0, 0]\nclass = 2", fillcolor="#e58139"] ;
741 -> 742 ;
743 [label="gini = 0.0\nsamples = 2\nvalue = [0, 0, 2]\nclass = 1", fillcolor="#8139e5"] ;
741 -> 743 ;
744 [label="gini = 0.0\nsamples = 2\nvalue = [0, 0, 2]\nclass = 1", fillcolor="#8139e5"] ;
738 -> 744 ;
745 [label="Albumin <= 3.965\ngini = 0.049\nsamples = 119\nvalue = [116, 0, 3]\nclass = 2", fillcolor="#e6843e"] ;
689 -> 745 ;
746 [label="Cholesterol <= 215.5\ngini = 0.034\nsamples = 116\nvalue = [114, 0, 2]\nclass = 2", fillcolor="#e5833c"] ;
745 -> 746 ;
747 [label="Age <= 16263.0\ngini = 0.375\nsamples = 4\nvalue = [3, 0, 1]\nclass = 2", fillcolor="#eeab7b"] ;
746 -> 747 ;
748 [label="gini = 0.0\nsamples = 1\nvalue = [0, 0, 1]\nclass = 1", fillcolor="#8139e5"] ;
747 -> 748 ;
749 [label="gini = 0.0\nsamples = 3\nvalue = [3, 0, 0]\nclass = 2", fillcolor="#e58139"] ;
747 -> 749 ;
750 [label="Spiders <= 0.5\ngini = 0.018\nsamples = 112\nvalue = [111, 0, 1]\nclass = 2", fillcolor="#e5823b"] ;
746 -> 750 ;
751 [label="gini = 0.0\nsamples = 94\nvalue = [94, 0, 0]\nclass = 2", fillcolor="#e58139"] ;
750 -> 751 ;
752 [label="SGOT <= 135.975\ngini = 0.105\nsamples = 18\nvalue = [17, 0, 1]\nclass = 2", fillcolor="#e78845"] ;
750 -> 752 ;
753 [label="gini = 0.0\nsamples = 16\nvalue = [16, 0, 0]\nclass = 2", fillcolor="#e58139"] ;
752 -> 753 ;
754 [label="Platelets <= 326.5\ngini = 0.5\nsamples = 2\nvalue = [1, 0, 1]\nclass = 2", fillcolor="#ffffff"] ;
752 -> 754 ;
755 [label="gini = 0.0\nsamples = 1\nvalue = [0, 0, 1]\nclass = 1", fillcolor="#8139e5"] ;
754 -> 755 ;
756 [label="gini = 0.0\nsamples = 1\nvalue = [1, 0, 0]\nclass = 2", fillcolor="#e58139"] ;
754 -> 756 ;
757 [label="Albumin <= 4.04\ngini = 0.444\nsamples = 3\nvalue = [2, 0, 1]\nclass = 2", fillcolor="#f2c09c"] ;
745 -> 757 ;
758 [label="gini = 0.0\nsamples = 1\nvalue = [0, 0, 1]\nclass = 1", fillcolor="#8139e5"] ;
757 -> 758 ;
759 [label="gini = 0.0\nsamples = 2\nvalue = [2, 0, 0]\nclass = 2", fillcolor="#e58139"] ;
757 -> 759 ;
760 [label="Age <= 22612.5\ngini = 0.408\nsamples = 14\nvalue = [10, 0, 4]\nclass = 2", fillcolor="#efb388"] ;
688 -> 760 ;
761 [label="Copper <= 102.5\ngini = 0.18\nsamples = 10\nvalue = [9, 0, 1]\nclass = 2", fillcolor="#e88f4f"] ;
760 -> 761 ;
762 [label="gini = 0.0\nsamples = 1\nvalue = [0, 0, 1]\nclass = 1", fillcolor="#8139e5"] ;
761 -> 762 ;
763 [label="gini = 0.0\nsamples = 9\nvalue = [9, 0, 0]\nclass = 2", fillcolor="#e58139"] ;
761 -> 763 ;
764 [label="Age <= 25167.5\ngini = 0.375\nsamples = 4\nvalue = [1, 0, 3]\nclass = 1", fillcolor="#ab7bee"] ;
760 -> 764 ;
765 [label="gini = 0.0\nsamples = 3\nvalue = [0, 0, 3]\nclass = 1", fillcolor="#8139e5"] ;
764 -> 765 ;
766 [label="gini = 0.0\nsamples = 1\nvalue = [1, 0, 0]\nclass = 2", fillcolor="#e58139"] ;
764 -> 766 ;
767 [label="gini = 0.0\nsamples = 1\nvalue = [0, 0, 1]\nclass = 1", fillcolor="#8139e5"] ;
687 -> 767 ;
768 [label="Platelets <= 313.5\ngini = 0.5\nsamples = 6\nvalue = [3, 0, 3]\nclass = 2", fillcolor="#ffffff"] ;
684 -> 768 ;
769 [label="gini = 0.0\nsamples = 3\nvalue = [0, 0, 3]\nclass = 1", fillcolor="#8139e5"] ;
768 -> 769 ;
770 [label="gini = 0.0\nsamples = 3\nvalue = [3, 0, 0]\nclass = 2", fillcolor="#e58139"] ;
768 -> 770 ;
771 [label="Albumin <= 3.33\ngini = 0.444\nsamples = 21\nvalue = [14, 0, 7]\nclass = 2", fillcolor="#f2c09c"] ;
683 -> 771 ;
772 [label="gini = 0.0\nsamples = 2\nvalue = [0, 0, 2]\nclass = 1", fillcolor="#8139e5"] ;
771 -> 772 ;
773 [label="N_Days <= 3835.0\ngini = 0.388\nsamples = 19\nvalue = [14, 0, 5]\nclass = 2", fillcolor="#eeae80"] ;
771 -> 773 ;
774 [label="Spiders <= 0.5\ngini = 0.5\nsamples = 8\nvalue = [4, 0, 4]\nclass = 2", fillcolor="#ffffff"] ;
773 -> 774 ;
775 [label="Prothrombin <= 11.2\ngini = 0.32\nsamples = 5\nvalue = [4, 0, 1]\nclass = 2", fillcolor="#eca06a"] ;
774 -> 775 ;
776 [label="gini = 0.0\nsamples = 4\nvalue = [4, 0, 0]\nclass = 2", fillcolor="#e58139"] ;
775 -> 776 ;
777 [label="gini = 0.0\nsamples = 1\nvalue = [0, 0, 1]\nclass = 1", fillcolor="#8139e5"] ;
775 -> 777 ;
778 [label="gini = 0.0\nsamples = 3\nvalue = [0, 0, 3]\nclass = 1", fillcolor="#8139e5"] ;
774 -> 778 ;
779 [label="Alk_Phos <= 8.31\ngini = 0.165\nsamples = 11\nvalue = [10, 0, 1]\nclass = 2", fillcolor="#e88e4d"] ;
773 -> 779 ;
780 [label="gini = 0.0\nsamples = 10\nvalue = [10, 0, 0]\nclass = 2", fillcolor="#e58139"] ;
779 -> 780 ;
781 [label="gini = 0.0\nsamples = 1\nvalue = [0, 0, 1]\nclass = 1", fillcolor="#8139e5"] ;
779 -> 781 ;
782 [label="Copper <= 57.5\ngini = 0.565\nsamples = 53\nvalue = [26, 4, 23]\nclass = 2", fillcolor="#fcf2eb"] ;
578 -> 782 ;
783 [label="Cholesterol <= 445.0\ngini = 0.381\nsamples = 21\nvalue = [16, 1, 4]\nclass = 2", fillcolor="#eda673"] ;
782 -> 783 ;
784 [label="SGOT <= 161.975\ngini = 0.625\nsamples = 4\nvalue = [1, 1, 2]\nclass = 1", fillcolor="#d5bdf6"] ;
783 -> 784 ;
785 [label="gini = 0.0\nsamples = 2\nvalue = [0, 0, 2]\nclass = 1", fillcolor="#8139e5"] ;
784 -> 785 ;
786 [label="Alk_Phos <= 7.73\ngini = 0.5\nsamples = 2\nvalue = [1, 1, 0]\nclass = 2", fillcolor="#ffffff"] ;
784 -> 786 ;
787 [label="gini = 0.0\nsamples = 1\nvalue = [0, 1, 0]\nclass = 0", fillcolor="#39e581"] ;
786 -> 787 ;
788 [label="gini = 0.0\nsamples = 1\nvalue = [1, 0, 0]\nclass = 2", fillcolor="#e58139"] ;
786 -> 788 ;
789 [label="Edema <= 0.5\ngini = 0.208\nsamples = 17\nvalue = [15, 0, 2]\nclass = 2", fillcolor="#e89253"] ;
783 -> 789 ;
790 [label="Spiders <= 0.5\ngini = 0.117\nsamples = 16\nvalue = [15, 0, 1]\nclass = 2", fillcolor="#e78946"] ;
789 -> 790 ;
791 [label="gini = 0.0\nsamples = 12\nvalue = [12, 0, 0]\nclass = 2", fillcolor="#e58139"] ;
790 -> 791 ;
792 [label="SGOT <= 101.525\ngini = 0.375\nsamples = 4\nvalue = [3, 0, 1]\nclass = 2", fillcolor="#eeab7b"] ;
790 -> 792 ;
793 [label="gini = 0.0\nsamples = 3\nvalue = [3, 0, 0]\nclass = 2", fillcolor="#e58139"] ;
792 -> 793 ;
794 [label="gini = 0.0\nsamples = 1\nvalue = [0, 0, 1]\nclass = 1", fillcolor="#8139e5"] ;
792 -> 794 ;
795 [label="gini = 0.0\nsamples = 1\nvalue = [0, 0, 1]\nclass = 1", fillcolor="#8139e5"] ;
789 -> 795 ;
796 [label="Cholesterol <= 465.0\ngini = 0.541\nsamples = 32\nvalue = [10, 3, 19]\nclass = 1", fillcolor="#cbaef4"] ;
782 -> 796 ;
797 [label="SGOT <= 131.92\ngini = 0.547\nsamples = 17\nvalue = [9, 1, 7]\nclass = 2", fillcolor="#fae6d7"] ;
796 -> 797 ;
798 [label="Age <= 21898.0\ngini = 0.375\nsamples = 12\nvalue = [9, 0, 3]\nclass = 2", fillcolor="#eeab7b"] ;
797 -> 798 ;
799 [label="Platelets <= 168.5\ngini = 0.18\nsamples = 10\nvalue = [9, 0, 1]\nclass = 2", fillcolor="#e88f4f"] ;
798 -> 799 ;
800 [label="gini = 0.0\nsamples = 1\nvalue = [0, 0, 1]\nclass = 1", fillcolor="#8139e5"] ;
799 -> 800 ;
801 [label="gini = 0.0\nsamples = 9\nvalue = [9, 0, 0]\nclass = 2", fillcolor="#e58139"] ;
799 -> 801 ;
802 [label="gini = 0.0\nsamples = 2\nvalue = [0, 0, 2]\nclass = 1", fillcolor="#8139e5"] ;
798 -> 802 ;
803 [label="Drug <= 0.5\ngini = 0.32\nsamples = 5\nvalue = [0, 1, 4]\nclass = 1", fillcolor="#a06aec"] ;
797 -> 803 ;
804 [label="gini = 0.0\nsamples = 4\nvalue = [0, 0, 4]\nclass = 1", fillcolor="#8139e5"] ;
803 -> 804 ;
805 [label="gini = 0.0\nsamples = 1\nvalue = [0, 1, 0]\nclass = 0", fillcolor="#39e581"] ;
803 -> 805 ;
806 [label="Albumin <= 3.87\ngini = 0.338\nsamples = 15\nvalue = [1, 2, 12]\nclass = 1", fillcolor="#9e67eb"] ;
796 -> 806 ;
807 [label="Copper <= 69.5\ngini = 0.142\nsamples = 13\nvalue = [0, 1, 12]\nclass = 1", fillcolor="#8c49e7"] ;
806 -> 807 ;
808 [label="Alk_Phos <= 6.712\ngini = 0.5\nsamples = 2\nvalue = [0, 1, 1]\nclass = 0", fillcolor="#ffffff"] ;
807 -> 808 ;
809 [label="gini = 0.0\nsamples = 1\nvalue = [0, 0, 1]\nclass = 1", fillcolor="#8139e5"] ;
808 -> 809 ;
810 [label="gini = 0.0\nsamples = 1\nvalue = [0, 1, 0]\nclass = 0", fillcolor="#39e581"] ;
808 -> 810 ;
811 [label="gini = 0.0\nsamples = 11\nvalue = [0, 0, 11]\nclass = 1", fillcolor="#8139e5"] ;
807 -> 811 ;
812 [label="Tryglicerides <= 156.5\ngini = 0.5\nsamples = 2\nvalue = [1, 1, 0]\nclass = 2", fillcolor="#ffffff"] ;
806 -> 812 ;
813 [label="gini = 0.0\nsamples = 1\nvalue = [0, 1, 0]\nclass = 0", fillcolor="#39e581"] ;
812 -> 813 ;
814 [label="gini = 0.0\nsamples = 1\nvalue = [1, 0, 0]\nclass = 2", fillcolor="#e58139"] ;
812 -> 814 ;
815 [label="Bilirubin <= 0.5\ngini = 0.509\nsamples = 60\nvalue = [26, 1, 33]\nclass = 1", fillcolor="#e5d6fa"] ;
573 -> 815 ;
816 [label="Prothrombin <= 10.85\ngini = 0.355\nsamples = 13\nvalue = [10, 0, 3]\nclass = 2", fillcolor="#eda774"] ;
815 -> 816 ;
817 [label="Copper <= 179.5\ngini = 0.5\nsamples = 6\nvalue = [3, 0, 3]\nclass = 2", fillcolor="#ffffff"] ;
816 -> 817 ;
818 [label="SGOT <= 120.9\ngini = 0.375\nsamples = 4\nvalue = [3, 0, 1]\nclass = 2", fillcolor="#eeab7b"] ;
817 -> 818 ;
819 [label="gini = 0.0\nsamples = 3\nvalue = [3, 0, 0]\nclass = 2", fillcolor="#e58139"] ;
818 -> 819 ;
820 [label="gini = 0.0\nsamples = 1\nvalue = [0, 0, 1]\nclass = 1", fillcolor="#8139e5"] ;
818 -> 820 ;
821 [label="gini = 0.0\nsamples = 2\nvalue = [0, 0, 2]\nclass = 1", fillcolor="#8139e5"] ;
817 -> 821 ;
822 [label="gini = 0.0\nsamples = 7\nvalue = [7, 0, 0]\nclass = 2", fillcolor="#e58139"] ;
816 -> 822 ;
823 [label="Platelets <= 132.0\ngini = 0.476\nsamples = 47\nvalue = [16, 1, 30]\nclass = 1", fillcolor="#c6a6f3"] ;
815 -> 823 ;
824 [label="gini = 0.0\nsamples = 3\nvalue = [3, 0, 0]\nclass = 2", fillcolor="#e58139"] ;
823 -> 824 ;
825 [label="Hepatomegaly <= 0.5\ngini = 0.447\nsamples = 44\nvalue = [13, 1, 30]\nclass = 1", fillcolor="#ba92f1"] ;
823 -> 825 ;
826 [label="N_Days <= 1917.5\ngini = 0.48\nsamples = 10\nvalue = [6, 0, 4]\nclass = 2", fillcolor="#f6d5bd"] ;
825 -> 826 ;
827 [label="Copper <= 135.5\ngini = 0.32\nsamples = 5\nvalue = [1, 0, 4]\nclass = 1", fillcolor="#a06aec"] ;
826 -> 827 ;
828 [label="gini = 0.0\nsamples = 1\nvalue = [1, 0, 0]\nclass = 2", fillcolor="#e58139"] ;
827 -> 828 ;
829 [label="gini = 0.0\nsamples = 4\nvalue = [0, 0, 4]\nclass = 1", fillcolor="#8139e5"] ;
827 -> 829 ;
830 [label="gini = 0.0\nsamples = 5\nvalue = [5, 0, 0]\nclass = 2", fillcolor="#e58139"] ;
826 -> 830 ;
831 [label="Albumin <= 3.54\ngini = 0.372\nsamples = 34\nvalue = [7, 1, 26]\nclass = 1", fillcolor="#a674ed"] ;
825 -> 831 ;
832 [label="Prothrombin <= 10.55\ngini = 0.539\nsamples = 16\nvalue = [6, 1, 9]\nclass = 1", fillcolor="#d9c4f7"] ;
831 -> 832 ;
833 [label="gini = 0.0\nsamples = 3\nvalue = [3, 0, 0]\nclass = 2", fillcolor="#e58139"] ;
832 -> 833 ;
834 [label="Prothrombin <= 11.6\ngini = 0.462\nsamples = 13\nvalue = [3, 1, 9]\nclass = 1", fillcolor="#b388ef"] ;
832 -> 834 ;
835 [label="Platelets <= 272.5\ngini = 0.198\nsamples = 9\nvalue = [1, 0, 8]\nclass = 1", fillcolor="#9152e8"] ;
834 -> 835 ;
836 [label="gini = 0.0\nsamples = 6\nvalue = [0, 0, 6]\nclass = 1", fillcolor="#8139e5"] ;
835 -> 836 ;
837 [label="N_Days <= 2817.0\ngini = 0.444\nsamples = 3\nvalue = [1, 0, 2]\nclass = 1", fillcolor="#c09cf2"] ;
835 -> 837 ;
838 [label="gini = 0.0\nsamples = 1\nvalue = [1, 0, 0]\nclass = 2", fillcolor="#e58139"] ;
837 -> 838 ;
839 [label="gini = 0.0\nsamples = 2\nvalue = [0, 0, 2]\nclass = 1", fillcolor="#8139e5"] ;
837 -> 839 ;
840 [label="Albumin <= 3.18\ngini = 0.625\nsamples = 4\nvalue = [2, 1, 1]\nclass = 2", fillcolor="#f6d5bd"] ;
834 -> 840 ;
841 [label="Edema <= 1.5\ngini = 0.5\nsamples = 2\nvalue = [0, 1, 1]\nclass = 0", fillcolor="#ffffff"] ;
840 -> 841 ;
842 [label="gini = 0.0\nsamples = 1\nvalue = [0, 1, 0]\nclass = 0", fillcolor="#39e581"] ;
841 -> 842 ;
843 [label="gini = 0.0\nsamples = 1\nvalue = [0, 0, 1]\nclass = 1", fillcolor="#8139e5"] ;
841 -> 843 ;
844 [label="gini = 0.0\nsamples = 2\nvalue = [2, 0, 0]\nclass = 2", fillcolor="#e58139"] ;
840 -> 844 ;
845 [label="Prothrombin <= 10.2\ngini = 0.105\nsamples = 18\nvalue = [1, 0, 17]\nclass = 1", fillcolor="#8845e7"] ;
831 -> 845 ;
846 [label="Age <= 20350.0\ngini = 0.444\nsamples = 3\nvalue = [1, 0, 2]\nclass = 1", fillcolor="#c09cf2"] ;
845 -> 846 ;
847 [label="gini = 0.0\nsamples = 2\nvalue = [0, 0, 2]\nclass = 1", fillcolor="#8139e5"] ;
846 -> 847 ;
848 [label="gini = 0.0\nsamples = 1\nvalue = [1, 0, 0]\nclass = 2", fillcolor="#e58139"] ;
846 -> 848 ;
849 [label="gini = 0.0\nsamples = 15\nvalue = [0, 0, 15]\nclass = 1", fillcolor="#8139e5"] ;
845 -> 849 ;
850 [label="Prothrombin <= 10.95\ngini = 0.541\nsamples = 1637\nvalue = [575, 121, 941]\nclass = 1", fillcolor="#d4bbf6"] ;
0 -> 850 [labeldistance=2.5, labelangle=-45, headlabel="False"] ;
851 [label="N_Days <= 1204.5\ngini = 0.567\nsamples = 862\nvalue = [455, 77, 330]\nclass = 2", fillcolor="#f9e1d0"] ;
850 -> 851 ;
852 [label="Age <= 13225.5\ngini = 0.464\nsamples = 217\nvalue = [44, 22, 151]\nclass = 1", fillcolor="#b185ef"] ;
851 -> 852 ;
853 [label="Alk_Phos <= 6.884\ngini = 0.492\nsamples = 22\nvalue = [14, 1, 7]\nclass = 2", fillcolor="#f3c4a3"] ;
852 -> 853 ;
854 [label="gini = 0.0\nsamples = 3\nvalue = [0, 0, 3]\nclass = 1", fillcolor="#8139e5"] ;
853 -> 854 ;
855 [label="Tryglicerides <= 153.0\ngini = 0.41\nsamples = 19\nvalue = [14, 1, 4]\nclass = 2", fillcolor="#eeab7b"] ;
853 -> 855 ;
856 [label="Sex <= 0.5\ngini = 0.133\nsamples = 14\nvalue = [13, 0, 1]\nclass = 2", fillcolor="#e78b48"] ;
855 -> 856 ;
857 [label="gini = 0.0\nsamples = 13\nvalue = [13, 0, 0]\nclass = 2", fillcolor="#e58139"] ;
856 -> 857 ;
858 [label="gini = 0.0\nsamples = 1\nvalue = [0, 0, 1]\nclass = 1", fillcolor="#8139e5"] ;
856 -> 858 ;
859 [label="Alk_Phos <= 7.171\ngini = 0.56\nsamples = 5\nvalue = [1, 1, 3]\nclass = 1", fillcolor="#c09cf2"] ;
855 -> 859 ;
860 [label="Bilirubin <= 1.29\ngini = 0.5\nsamples = 2\nvalue = [1, 1, 0]\nclass = 2", fillcolor="#ffffff"] ;
859 -> 860 ;
861 [label="gini = 0.0\nsamples = 1\nvalue = [1, 0, 0]\nclass = 2", fillcolor="#e58139"] ;
860 -> 861 ;
862 [label="gini = 0.0\nsamples = 1\nvalue = [0, 1, 0]\nclass = 0", fillcolor="#39e581"] ;
860 -> 862 ;
863 [label="gini = 0.0\nsamples = 3\nvalue = [0, 0, 3]\nclass = 1", fillcolor="#8139e5"] ;
859 -> 863 ;
864 [label="Platelets <= 287.0\ngini = 0.419\nsamples = 195\nvalue = [30, 21, 144]\nclass = 1", fillcolor="#a876ed"] ;
852 -> 864 ;
865 [label="Albumin <= 3.555\ngini = 0.295\nsamples = 135\nvalue = [16, 7, 112]\nclass = 1", fillcolor="#995fea"] ;
864 -> 865 ;
866 [label="Tryglicerides <= 112.0\ngini = 0.151\nsamples = 87\nvalue = [4, 3, 80]\nclass = 1", fillcolor="#8c4ae7"] ;
865 -> 866 ;
867 [label="Age <= 21787.5\ngini = 0.304\nsamples = 40\nvalue = [4, 3, 33]\nclass = 1", fillcolor="#9a60ea"] ;
866 -> 867 ;
